*****HIDDEN TO OUTPUT******0.202034901840979 0.3100278571720119 0.5090487769157599 0.2965542635205725 -0.46050625486444785 0.11877677048618922 -0.6134826750967232 -0.1746157841239135 -0.7037305241458852 -0.9626247812923283 0.3563674362194182 0.8619301084354577 -0.017110458827381797 -0.07765218045270467 -0.045123297837925305 1.3167228879419741 -0.9593252483016702 -0.4343902546663585 0.40972104584974584 -0.47648620472134534 -0.6326986867196986 -0.8533013132297633 -0.5395418913396394 -0.6186029732936768 0.4472060285147109 0.07920955155206515 -0.592870887288032 0.2610065238294729 -0.9153097404386078 -0.06864614424873985 -0.8546343101893009 -0.40955540632594245 0.11801156609421053 -0.5106596481301398 -0.4040786391962305 0.13008898911706043 -0.6746658418704109 -0.027223158813995733 0.2027797231784356 0.8221516466665516 0.22878728011451266 -0.12596575936139406 -0.6257224852842559 -0.641366589299457 0.05216958542427112 1.1409655702316956 1.135048977736988 0.28323888647704404 -0.1738207482258214 0.6187564800308324 -0.681521511889483 0.4661942580980602 0.413215922943095 0.9325739396570432 -0.24554563554216868 -0.5957140138133846 0.7206190949422162 -0.0428710763525126 -1.2643422506446236 -0.4323951629994733 -0.22248066475135111 -0.8407172239647104 0.03180060490851257 0.6656675628266815 -0.35249545944865296 -1.0812681725203475 0.8323896705141026 -0.004203662229736257 -0.3653726340586757 0.05857813440387746 -0.7119786728939521 -0.9164684324221966 -0.09378893063377805 -1.5014900122546135 -0.6411329847635885 0.5653234926404802 0.577697636367275 0.39363775195383827 -0.8392910771930892 -0.07642572453471211 -0.33521073761333914 0.2450501816999035 -0.21037489696041942 0.18796878806151598 0.12309317148916306 0.188975229357759 0.022285357235867206 -1.5568027650273173 -0.8811968823276974 -0.024871788516647536 -0.20699893341359327 -0.6970362674511457 -0.7548778987951885 1.1016283043349309 -0.17416268728331818 0.3548591394971016 0.08789930408999552 0.45504572074132305 0.5603195845916658 0.20872292583369642 -0.11882226305712612 -0.8003154551734303 0.02160228566045195 0.09498387475180337 -0.14208008072006395 0.18297240296093017 -0.6986614861401604 -1.637620352250021 0.3760745660977593 0.6059041465206985 -0.2542664477856221 -0.1214641573543905 -0.03621799528790575 -0.17453794844982579 0.17285265858447835 -0.3215814058115242 0.09572936380181439 0.9855807985675195 -0.283900801225941 0.35223181336298165 -1.0454073851618226 -0.8059824583987861 -1.0325003679152034 -0.2473494051980012 0.01404111790905334 -0.057956697722748356 -0.10832268430252441 -0.9853736794489634 -0.13608509636504532 -0.7601112132576053 0.41180125342745966 0.2841598408191642 -0.12028584292356442 -1.27486480980291 -0.17371603581821804 0.8271886491716854 -0.8359879859572513 0.6436903149160706 -0.4795184072148288 -0.29330141220472605 1.239112808985533 0.03588904342337944 0.6023979955705945 0.024414748261750642 -1.0551132100066987 -0.447272218052775 0.6520020363714347 0.2974761403342665 1.154987039606238 0.4803320206053134 
-0.360396325820139 -0.4942886589129678 -0.3628550046421799 1.2632395655858948 -0.5178841406521124 -0.3739138503022269 -0.5285787964614024 0.4391599624431597 0.4818159765907125 0.08343625463255097 0.7742860583671617 -0.12746611533347627 0.3239823258354995 0.18570191198113484 -0.9633750867843728 0.18516365866222 -0.9508732446924296 0.9274806486565862 -0.978996947107454 -0.6572938561597254 0.2206011567516836 0.9660157613993313 -0.1082769978318607 -0.13890712981655506 -0.1694753085626161 0.08096667966650652 0.5833089403306185 -0.5993908796462607 0.27905376165548074 -0.5488249146883557 -0.21120277241618143 0.6327759487234281 0.3811235144168091 0.06610790964156084 -0.2067939985052294 0.020984611563637477 0.37945418190594143 -0.4566600917606278 0.9631152554068672 -0.43893828916488986 -0.48959440228198364 -0.5325659696063668 0.12459757821138974 1.1029458596888284 0.5091526827561593 -0.0679385400488327 0.09214640289777597 -0.9700236201781481 1.4006290460598247 -0.4688175831409882 -0.2918526838842389 -1.1238882792944014 0.7639225388446873 -0.31358809334696297 -0.7993958186543574 -0.05410275075409657 -0.12927208306013702 0.5689156345924077 -1.0499630153051698 0.12151672325566544 0.4315744801852072 0.045229786072375135 -0.4530221337813573 -0.14928794187155717 -1.007797297852631 -1.576813744764492 -0.8208857268243348 -0.08432838685215158 -0.3864685032648064 0.04132608330504444 0.38509746860004745 0.5597587809546964 0.649126721372227 0.24865594381557193 0.03214099444445728 0.03530073649623962 0.24289365685966874 0.5618144598550616 -0.32724949463390884 0.5687840214471437 0.2843194888389299 -0.49754418069580464 0.3779631091386652 0.26060881559912374 -0.4257839695182852 -0.10192807312223794 -0.6025534545057876 -0.42142922149048345 -0.2561728314837291 -0.7284689638354027 -0.30028663206545886 0.7043991992904813 -0.6967469091271086 -0.19673172071932907 0.335578907077716 0.1947996728850533 -0.2417198796528939 0.01988403512269203 0.12185207594868823 -0.7157712200710856 0.09153363146747473 -1.0591230158796514 0.43291595967997537 0.17809426676692286 0.9290488715430939 0.28439369828610084 1.1985851866695894 -0.20920186048921813 0.27543834243073695 0.3711599771341652 0.28157099752416836 -0.34857710816187354 -0.09304430812917593 -0.40973395139655283 -0.7549828832763901 -0.04767330064804153 -0.35296418886186515 -0.032734636036203635 -0.6596630519934379 -0.7055078870067314 0.6089863757264233 1.4199622256013422 1.697154477537732 0.3130478686828165 -0.24364993936675672 -0.38571940297371127 -1.0743663964957804 -1.1717166079591785 0.16097484162282982 0.07526910328901787 -0.6925454966905984 -0.9601068215081079 0.7635415472307073 -0.598538334093716 0.07941078769063355 0.4202883372727121 -0.6823947848164493 0.8770052963410285 0.5591785844823899 0.7839847127048197 -0.6133719004934753 0.6991513707079505 -0.08341374903796618 -0.15612110885615257 -0.4097362854009577 -0.41439393984051864 -0.5337724649042765 -0.3607455262606043 -0.29279486043492725 -0.19873063680785402 
-0.04958497797607994 -0.6384592629423186 0.6006335607793727 -0.6129472101226136 -0.5491488726944276 1.0661724771575918 -0.9172524675476758 -0.06438137953156009 0.39655347812746855 -0.1155556704716229 -0.21570920635136995 -1.1512010279882003 0.2798807954228076 -1.3412967583224613 -1.2221145100584805 -0.09545055875389236 -0.03579260093680099 0.008462214238370474 0.4552936417250668 -0.01476051866566278 0.7227416696570741 -0.630970823165375 -0.5080394951431663 -0.12191596841486885 0.3160781100882735 0.04809260045734005 0.6848449488032857 -0.6823972439958362 -0.29607567169714605 -0.5521749941549995 -1.9727429572270367 0.039745168052834325 0.02388884742949683 0.30824576655581426 -1.7835895430785227 -0.31672536875819274 0.02600729191057796 0.053867343692335375 -1.020340637912945 -0.2636297624774575 0.08513113627672829 -0.14071285020485375 0.15439284192876185 -1.440443312140203 0.001521075582474667 -0.27356832810306214 0.6471194279083149 -0.7598600108865372 -1.0013037600215506 -0.6426498384502626 0.5861598625084977 0.6134446447880331 -0.7501559112928955 -0.5326237531651878 -0.12633181939869165 0.5140707630379457 -0.257226997091144 -0.3498435150249516 -0.35187540063307293 0.1835239669129599 0.11535815123104272 0.05192975897294736 1.2299642011138283 -0.1772071970865112 -0.20473700985732027 -0.37831439521308585 0.41079422421628614 -0.30216410621994116 0.2578067583928771 -0.7383678841890408 -0.7119099765281424 0.17368823970467936 -0.25626612661342535 1.269582443504936 0.20102215982651117 0.6157640909343891 0.1927454506294375 -0.36839553423953963 1.7608752527586453 0.7132041087628673 0.27549872530257363 -0.19330872649531253 1.5253689316944807 0.11494580638142289 -0.3019215556679707 -1.001171212586935 -0.8085530652378313 -0.14291349035892914 -0.07566896367270913 0.5527625191677171 0.3870887063382304 0.5895446371888134 -0.7403290238544483 0.5593261177973604 0.6837480466649235 -0.9285808735192389 0.5028930619697887 0.03758636577465791 -0.3877698569662337 -0.06902142730367142 -0.5634830313806095 0.20435466801513036 -0.1728148870902844 -0.2767855068789811 -0.06366848882553805 -0.7220186996561737 -1.2347993762225116 0.2909602772016224 0.1044039384114094 -1.427237298011882 0.02277453614422876 -0.4733060457707095 1.0417782626267726 -0.676466403538159 0.7768266244467185 -0.9565605014167843 -0.6793808270770532 0.8842525311987761 0.010270555562705772 -0.3868154313901749 0.09499064359704386 -0.668398298346248 -0.9983257288679971 0.7397622477561744 -0.651922027619509 0.6848898740757261 0.6484204152473928 -0.5079442401948384 0.8237335636270802 -0.13609657546102974 0.21940431493418908 -0.4322470849464787 0.9635293200891342 0.038996230441219075 0.63160248774818 -0.29151046558137766 -0.5428076915657221 1.3981223354226369 -0.4943315428403235 -0.6207803303286277 -0.08786022166552335 0.1916888986787835 0.002579480532485237 -0.42325267203585815 0.0821729434786147 -0.5511134905401723 -0.24037130012118718 1.328396255511026 -0.7196376432969259 -0.02050345100205593 
-0.04773676111242236 -0.10867371863926761 0.4261523797963166 -0.16382511518207876 -0.2856240461139919 0.280967751531667 0.09045633507013556 -0.816849596951737 0.3332423725304475 -0.5022233965565351 0.1337263059543092 0.8070933338890823 2.2294157019401197 -1.8119211595277562 -0.7582155599625273 0.7042130498697853 0.427558462133841 -0.5712090518111831 -0.6330086439977156 0.4356492414690704 0.3777201772223433 -0.5867191899519573 -0.6554234403275659 1.2704393115846115 0.11283489475923103 0.2589864108317546 0.540936983247624 -0.07469530225467788 0.016541322166892556 -0.21407086981962933 1.1288178533788353 -0.40364295574741593 0.10254176233229137 0.01771517091211395 -0.11460633312125013 -0.3423707138078264 0.5059878489920416 -0.4485424776989915 -1.119767111867846 -0.03807728758253637 0.10268566673694665 -0.7465116426716388 0.624905047400288 -1.5439280868299154 -0.14115804627779194 -0.6803899735985242 -0.07063066834084702 -0.44146973386583954 0.5777676588542411 0.8122693424042751 -0.6016181144594325 0.02194157302658446 0.23090728781092396 0.03995417456611368 -0.10605000608704314 -0.7688337645087411 -0.07226113905827496 0.05049423708706703 1.1148857901133271 -1.139148383816675 0.2732245532907933 -0.5781590018655545 -0.3015986381407358 0.23066675746757945 -0.6504042656838117 -0.8984340808534649 -0.9966385199206916 -0.29263509270348753 -0.628141755330342 0.42301571764420837 -0.3219044166672085 0.3017254367319582 -0.2821756295444293 -0.571521635494081 -0.382656041711517 -1.0614591148436137 -0.1520319771132352 -0.6008601798219267 -1.101136114747029 0.14787813611305384 0.7398095433931831 -0.33354088428750217 0.39928020156629135 0.35058267021944634 -0.8443422958015404 0.6265847950768044 0.2059869746861948 -0.06388928312425265 -0.0018824813312854185 -0.25859150254926416 0.39630109041235595 -0.17050783070599992 1.0883395428401605 -0.2809739867614742 -1.0870283721137455 -0.4496490693154443 -0.10561162696524105 -0.6322449723419554 -0.17557442143919236 -0.1409023196540924 -0.0676551755524209 -0.6931114968350844 -0.7188560367468743 -0.23520418586986555 0.10442636301202143 -0.08861965806410844 -1.3342873303676126 -0.36469833653927414 1.7844071885644772 -0.20274384149314423 0.8279509024216194 -0.07578028266138437 -0.9003791439172937 -0.4798954133218076 0.10700733637228352 -0.36738721956868364 -1.4267704721341723 0.2918884097887994 -1.7663912631881715 -0.3715615497520061 0.9481251774935301 1.3353651453750957 -0.7186971569551743 -0.34245666477766035 0.7455013766619609 0.6654266171999823 -0.1347326678448143 1.3147667724693164 0.26565715690468555 -0.8728577399547687 0.32314378744114775 -0.12066670981192922 -1.3809182015739867 -1.1768137222528345 0.7611951591164252 -1.4491034245777517 -0.18987758488177003 0.27824624732408265 0.9271759719551734 0.03003132431875992 -0.24493100871556453 0.01638421783021472 -0.35938191757065885 0.27260081431223204 -0.9988764851335696 -0.47206796946995044 -0.17611857407345222 0.33948786089273886 -0.3794718375266203 -0.6533495861154839 
0.916470949349128 -0.4337256387653336 0.7423351887047002 0.4104574450042098 -0.26175562187858453 -1.1251877135811361 -0.2061830250057986 -0.8501270563602625 1.0781207287591332 -0.36559655528710094 0.3486041774125135 -0.3417726461986118 0.14706525419317884 1.4808765769709624 0.33792552795174063 -0.08544630833351823 -0.5231965287146972 -0.057013463528819565 0.7306092043089744 -1.1689530495740428 0.4863892819861945 -1.0258210173355737 -1.529632268123593 -0.21944724293073947 0.115748914738973 -0.0036912925830722815 1.1443948654958094 -0.22640036270154384 -0.6092619865597187 -0.35752637439431745 -0.8886607730734665 -0.31886995837742504 0.5573946393066878 -1.4243293693363077 -0.8779026289253822 0.033166393910023746 -0.2084373622080399 -1.0472852597914393 -0.31759221929365633 0.8207384956394796 0.34468276061916164 0.39616267345794104 -0.32350515988780415 -0.1755202644431316 0.759247297968614 -0.1425690318793474 -0.4127315807958948 0.05268574780212717 0.33155491682564786 -1.0445307851609311 -0.10110992136172586 -0.24576764290111122 0.6667743084915185 -0.3634513424509072 -0.2619787242911274 1.1815732121509492 -0.42428223983718444 -0.2572999666550111 0.036341153797721536 0.40258697314999553 1.5945736260025662 -0.6562790270811935 0.17249751216599088 0.5302362706391057 1.5779845982583025 -0.9301041935858487 0.07454674702404315 -0.7491684504281648 0.039494453385176986 0.13682280077207948 -0.13882818611061362 0.48880608560452554 -0.07815159585434427 -0.5604460803115044 1.291541834886242 1.1687286362397422 -0.7255839455475058 -0.31957782387187883 -1.0962807994617092 0.09010444992750598 -1.4301049374559174 1.4432802029466962 0.563878514912623 -0.3106567643331413 -0.3778708554685969 -0.5989013966271807 -0.08434165983451666 -1.850126092397808 1.0877902135124349 -0.039253063858465116 0.3353193391394535 -0.31650729129117317 0.5966115189318466 -0.6774424152087295 0.7996358099503896 0.3846433325451303 0.5928077547450772 0.9302033793824906 -0.9010104615176999 0.442148545759156 0.049187028800973434 4.0532734354007316e-05 0.0529096479313868 -0.21077238160543238 0.3056038256798395 0.7740771672160318 -0.44203158391916914 0.6739646415557575 -1.1772072695207856 -1.0910867985463937 0.17901371614967682 -0.7169852456637222 0.21342963065388862 0.4876653116966107 0.045519258192859305 0.19710214787434152 0.7384196700672281 0.0759373308262797 -0.8084717415045596 1.6127380993690188 -0.5931232439208179 0.0764933373741673 0.46993645300744386 -0.3015837060514568 -0.4880761878330982 -0.9485273523303823 -0.5551088801165878 0.8094044749474466 -0.4262649000254281 0.40819955444775424 -0.7860431659992283 0.4757912013612752 -0.2555205435418673 -1.152770737175263 -1.0641541363461708 0.5077357641764668 0.08099161570091246 0.4442378827475128 0.4969480412440041 -0.22900168497115955 0.4792227921562936 0.49219605857972903 0.43209179536141695 -1.6531035692409168 -0.7893901999279592 0.10096229541853838 -0.3412554617891573 -0.9396528530011675 -1.5261496016701452 -0.4124716381709074 
0.8080998175955636 0.2998441909752105 -0.4245672745050076 1.012547932563951 -0.4848274804050302 -0.7997109780476886 0.12644665299186175 -0.8656213291447757 -1.3904816410809455 0.6857160438159273 -0.16032298781839788 -0.13435743621531615 -0.6397758378457951 1.2795018308411525 1.0354796727982436 -0.29457672876840346 -0.053064511969221566 0.05950437008000234 1.4927741447734775 0.4952779075921781 0.2150683161925482 -0.3062991669927055 0.33239697004440655 -0.4911571375817481 -0.9716980380120712 0.4358490554901887 0.6629373504193729 -0.11946287276651821 -0.3633069533784594 0.8434989475349808 0.8914275064773384 0.2303365770059511 0.23055173616987154 -0.06008667083360136 0.32983403330440186 0.20884972840382912 0.2945489542503554 -0.5423385979358724 -0.6180184828592078 -1.7638406915252949 0.5272712241496568 -0.3092714871332363 1.185492803966325 1.3316115806788242 -0.18741037714238273 0.004200063093079727 0.2075376572657534 1.6007329265569055 0.09528748894481735 -0.7689472310050692 -0.37219956020390504 -0.8552078280676859 -0.8345417715063375 0.41415455332051654 1.253191520991234 -0.7259213529191814 0.4614303544641978 0.5854629362268857 0.105976437260784 -0.24541276414992688 -0.14312501864845464 -0.20079022545990052 -0.79820792023859 -1.9889859677953383 0.3344269568005626 -0.09531139119942797 0.628245874259359 0.8378437087592906 0.6796956513027391 -0.3093098791861272 0.4725121954288283 -0.6043119729793611 -0.06216006254301504 -0.0483705410039865 -0.383898747647318 0.30616264475578303 0.06729541994562885 -1.457297042221979 0.540626152093048 -1.1730247729262664 -0.356982767267788 0.731019053639642 -0.8388552409306812 0.2289434456561686 -0.8612170057418939 -0.06935717745541857 -0.7538630737089159 -0.5408474963728487 0.6917163424412569 -1.049159171024563 0.5093467525036046 0.9235034499139196 0.7319437752560222 -1.6599782734775992 1.3201951268293803 -1.5953531908544853 0.5489208438963493 0.6655759176262871 0.4091229042990843 -0.582260582986421 -0.5076069838353917 0.3857380339374518 0.19288324650621766 -1.4617634180305594 0.1713881552359816 0.4125924970995822 0.04802980949114899 0.0668015312269247 -0.9558074858069567 0.058346419203389205 0.6100062428020424 0.7904008134044614 -1.0261069271502963 -0.9099916268264006 1.0869223358132831 1.6204503159063008 -0.592132639990335 0.07097560099161217 -1.5761715055547703 0.6116800813562139 -0.2467093910080469 -1.8035528792280462 -0.3312338162323035 -0.2499756218051462 0.2334691453319782 -0.23596201961749833 -0.5834945165477239 -1.419931486636088 -0.27803367741682766 0.8703115853316638 0.5294924577422931 -0.8876178633188698 -0.4310183342953976 -0.3779746218478655 -0.6843795849763538 0.22581801144548666 0.9702151591494972 -0.201579644968828 0.15217324129067317 0.43770136965497286 0.1122757694998623 0.03532734074283655 0.33845485428691924 -0.7646039486642823 0.41898875970405997 -0.37416091777838106 0.8023786092783691 -0.7720807451319716 -0.043740823076951124 -0.5082102058136635 
0.04078411527165499 0.37881626212407876 0.5445796740176194 -0.8112166008221847 -0.8412941488824727 0.6914333528862103 0.07633135762596237 -1.0594744469581427 1.2780976461993763 0.2283713171200334 0.4649870841143819 -1.1407350435097154 -0.49498563619692504 1.428057088154471 -0.10746615842145787 0.04155550821092246 -0.2825407305362939 0.40504108466422767 0.053244645222959096 0.7428151311666757 -0.4871055130067299 0.3328442612684852 0.40603223601645 -1.0180183512984038 0.24920091629824564 -0.24509614484934347 -0.6218465600272528 -0.6346166599457539 -0.12108371108367545 -0.0967073309389349 -0.4766996247374713 -0.8824267697808007 -0.7625210617030954 0.46498986633858347 0.6157997865391864 0.06895059680270084 0.3773745831080748 0.409813625530021 1.027883543711435 0.32662111164488994 0.19882871867431484 -0.6548491142933607 0.0595365533606785 -0.08559305520312682 -1.4273405630450635 -0.5081089643448025 0.7130534942414939 0.38109537330048504 -0.350930671846784 -0.14772776941030194 -0.2533225035090962 0.4473472364108479 0.9910246930613702 0.8037273317983866 -0.7154448612091469 1.026353851766764 0.025432868099753963 -0.5916097804626134 -0.31294729325235593 -0.5516172532562995 -0.5246590953884606 0.7536101822708082 0.35604587010601507 -0.9662639607060639 -1.758117215393078 -0.5284396491531966 -0.1384257338692108 0.13383180152057206 0.5714362852040716 0.06257178003002345 0.547753181681272 -0.4071280076924018 0.22629996422405826 0.8504994236472899 -0.938698958829358 -1.1266531271904887 -0.8894888831818175 0.2886725092951372 0.3096547101405096 -0.26133836732963367 -0.06809363990523562 0.22363780690558765 -0.17614554171017466 -0.6774741914979832 0.007589355968073764 0.8504777230699802 0.5305176018908868 -0.09374241007076696 0.3107795926678924 -0.5316936184705112 0.9388399803961646 -0.8669344461444705 0.12300051766697838 -0.27881275455428395 -0.12202025137648957 -0.3426558688411977 -1.3363689612837026 0.38106770484355246 -0.605904266057138 -1.1179619353106918 0.4197191763710727 -0.07969087694034291 0.16059992763354825 -0.9576702020197736 -0.5613879576159917 -0.3050583566790225 0.295182599197004 -1.0517993021655023 -1.0298451784282203 -0.2253583742216691 -1.077896714961774 -0.09416023469299416 0.21595135622690775 0.5818185858718332 -0.4362041398645962 -0.13476829485537403 -0.5952172683729352 -1.3282712269299235 0.47763897445008424 1.03280729150042 1.0932539004618873 0.3126862046888777 0.7989589438899994 -0.15410750472931073 -0.15463876700616677 -1.0281505773633002 -0.5387832665273876 -0.29979741852117653 0.01570229202911471 -1.5224924761168996 0.015489916099579549 -0.03805689255456834 0.09718247442393925 0.7890145704057223 -0.14466144336341366 0.8151927867240406 0.005938297872456245 -1.0819904089878518 -0.39428692563315765 -0.3244096781110676 0.13764691674061025 0.8504679381977264 -0.4396441266100068 -0.14649884283849293 -0.8770226619921132 0.43414459183593745 0.12006323633540865 -0.6894283841894733 -0.9625941620979103 -0.8294888003512314 
0.49137730541793206 -0.6121905496561284 -0.2403370883350583 -0.5861416015899532 -0.3485296837411398 0.6894056207589747 1.0838164207468148 0.09054583967698963 0.04501203963265005 -0.007124774444528217 -0.0034606038269293917 -0.49915914407093276 0.3921428535587708 -0.33233625564430397 1.5553262433087867 -1.042470854653984 -1.127460614035044 -0.9619990329547576 -0.3825281746385536 -0.16262111916726668 -0.40299903623159533 -0.7251271988821344 -0.20027186755115398 -0.3984175905428093 0.1431811031720624 -0.3744424413790058 -0.525370593296948 0.1033064458344157 0.44314179708942614 -0.9163467187103215 0.12883897834688823 -0.1189908905641787 0.1944784462729879 0.5057971291439546 0.6260417694493859 2.177586320461948 -0.145012087066805 -0.20791653231932872 0.28277232405389424 0.606126425589721 0.28254107828172814 -0.26784537062880176 1.1252532494022554 0.35693307466679536 0.901050614295778 -0.2406065062421458 0.24183955833296625 0.8389845595573676 0.9112527072820873 -0.22738769185677019 0.6579411871002991 0.6670462034033814 -0.5131770883974253 -1.2405738767989654 -0.43069812364132254 -1.3032120556702709 1.070299323841819 -0.6453135734278502 0.14114725895794206 0.7095495565370495 0.469665628539518 -0.5282937385108841 -1.205360257421198 -0.19015983798224392 0.7598237064933258 0.2185817361965151 -0.7351172497717888 -0.6939056366801338 0.814263738392022 -1.398946071973934 0.4084612891766856 -0.6582414493824731 1.14790798729122 0.34827438658836135 1.3008076463395295 -0.24847226273788983 0.09259382977741147 -0.9405608663519142 -1.0746311071508474 0.5306852736529463 -0.013853294368781764 0.24225103246035506 -0.90254928750027 -0.6345238871731396 -0.6097901620534074 -0.043590329948535254 0.0706948761807178 -0.3656716872256819 0.1913584273181418 0.4619863193439177 -0.18781536640851923 0.19513624491275247 -0.09583054510769158 0.5581053378638264 -1.473317391932875 0.11392027171515053 -0.9285301569034229 0.5221410141892786 0.8346570524812434 0.07758587965617895 1.277438471798478 -0.5772949769897668 -0.4419004689513649 -0.2607785597269988 -0.8756490962219462 0.008598817578249205 0.5806178510467774 -1.1929596385976842 0.646504967762262 -0.22504373699986424 -0.6054688676787247 0.17051190571619046 0.766394634062933 -0.7295925338396274 -0.22174337604429595 -0.04833824323771931 1.4176158013759845 -0.556399321716065 0.5897333521416092 -0.5181634190088158 -0.24703921019015423 0.3140988940787591 -0.6889114496038238 0.380081285170179 -0.6008273582347763 0.8222200965862583 -0.25255066927821535 0.1851431511836655 -0.7583463795542984 0.3189335677872067 0.8953203592585469 -1.0590238342492144 -0.5292715380816159 0.5112844155480012 -1.5899209716454197 -0.7129319564681754 0.14393080218628282 -0.25578216021422445 0.35214136061558265 -0.4794899205801347 -0.18080072196956484 0.30698373790813976 0.8548149000664365 -0.2849651110883294 -1.0766312809266874 -0.5204835412494441 -0.08577959784501402 0.5467788137532027 -0.11508881337017439 -0.6043358262081594 
-1.210305667392303 0.4025055058953095 0.20125995062278046 0.19586521334935658 0.8493818543423834 -0.6746890906967612 0.36188162034897214 0.5128757754688585 -1.6880491668995459 1.0622963203510245 0.008474077058848025 -1.1985963116965803 -1.541177217396891 0.05985393312760964 0.21239186813995534 -0.7669753945202714 -0.756185297765011 1.5184301825578548 -0.0459346113570469 -1.2732416726207818 -1.1617995639923901 0.33962829396019417 -0.7557500770904649 -0.04917354671618596 0.08404112346912827 -0.3045216291267251 -0.593082770687818 -0.05335130717164351 0.21082322464168646 -0.007992047275803653 1.3072006250282255 -0.6272195056619229 0.15882456341578607 -0.5683980865174426 -0.273489965581131 -0.06416891021396427 -0.9291947303726549 -0.3206551655296112 -0.7295290044688121 -1.0959717430550755 0.7244008520425004 0.18261627951989948 0.01886341677647008 0.741192034404445 0.8856921549554196 -0.15635602706374963 0.952214304738739 -0.026282639004067368 -0.8423091998282258 0.36250168213478084 0.6688355286891231 0.40759582791088184 -0.6514452156120859 -0.9037687515167354 -0.5977747250876138 -0.47580912269042946 -0.5266547214705681 -0.9729217709039873 0.6283923008046828 -0.028124839479029367 0.15099673606058814 -0.6926502666717087 -0.11443515847224633 0.4714426582855474 0.009630220196354324 -0.9916457690459252 -0.5544862531265239 -0.4775201987115947 -0.6698326704046308 0.5777222148747964 -0.5391153028165816 -0.5025819820265702 -0.26679528993385915 0.3790652619758497 -0.9063072020147455 0.17412485052152676 0.024940234493805457 -0.7572856277930752 -1.8497546333266248 -0.0940453575300071 -0.546678574823394 0.7518592328043644 -0.4846080135059652 -0.8741713833934058 0.9576913034014155 0.5044490944920724 -0.3422416039702397 0.4133023457613614 1.022683112463153 0.13163739970371638 0.5604161237873935 -0.5175060340231152 -1.7503260847390192 1.0269718502594625 -1.100181715407223 -0.7240444291408756 0.21887072361439908 -0.04316189055231338 -0.854269289086628 1.022868514460028 -0.014999436896634289 -0.2039453732853781 -1.4397178048694157 -0.09275664105083956 -0.9441790955762617 -0.7644779062710092 -1.6330029207585453 0.9018450286820641 -0.7108843004929762 -1.280568078028743 1.6928013476088957 -1.4195545429520804 1.2445152835910365 0.28676343718902847 -0.9795256095986618 -0.9780218187283151 -1.1846611126503819 -1.363417633054288 1.0218505374226845 -0.9030577576636651 1.1030943777021078 0.19853720613377404 0.08597961270976058 -0.371816682246576 -0.03663053052292718 -0.3496181608188645 -0.309338793556211 -1.1885063126604782 -0.7541811435939669 -0.677163755068054 -0.001398482670972092 -1.321674876274188 -0.09054651388310954 1.4038276536178256 -0.017140168326187272 -0.800613311314115 0.5578712655050929 -0.915904530901606 0.19695794154758858 -0.565716643580398 0.1007186059159187 -0.9157226273562973 -0.9730911992743771 -0.9026552635138358 0.16365994030817108 0.29677193067436974 -0.3864288709070666 -0.3764222079050841 0.4763874433729533 -0.029223703455837115 
0.6211195527472715 -0.4100625731606792 -0.4825069617674455 -0.9973141982841017 1.0677436333658716 -0.35907238994636004 0.36463517875724777 0.6933006931321013 -1.7463323049190074 -0.36529071763579163 -0.41851790099471375 0.25601259302111057 -1.039722290388735 -1.0822771696910107 0.0953395003796211 -1.5603920214886384 -0.5405116737505177 0.018737831396215956 0.1417877214027916 0.41665677833957476 0.10481743025188815 -1.2382858395886 0.2948861252104507 -0.9426909133449859 -0.10876494072771706 0.3926431941848162 -0.38621972944447636 0.4254440964722619 -0.09875732160253899 0.20197598919199375 -0.041729715647915826 -0.3227783643078621 -0.4298615377425964 0.6982909920090523 -0.7287535736748336 -0.2670274796860394 0.05232450349551379 0.6342317656634396 -0.7609438547486673 0.5568882161664167 -0.2671132521998741 0.04183753631353164 -0.7773932376582606 0.9448764897412417 -2.149972303565368 0.7362027374152538 -0.17389778004663833 -0.15105611625907983 0.20529420498596715 0.6213588864313977 -1.2754927327944299 0.12485783782383421 -0.7445640681417695 -0.517684166777125 -0.7447939512463252 1.3475585599007833 0.3443038186253376 0.14115031233714737 -0.4340312345681778 0.3205695475679979 -0.9184412475256138 -0.8628135725080746 -0.5797621897676174 -0.8560771622231844 0.4092639211253183 -0.7566611660179904 -1.0821270803114516 -0.29893486090604576 -0.8099407035098329 0.8309538263917924 -0.6886193711713245 0.48753884442342404 1.0677136213214806 -0.04394957154784826 -0.3920263732370194 -0.8817050696998168 -0.1211432627795602 -0.36634966685303366 0.7838612380404242 0.3337596913919767 -0.4903682167248817 -1.7905132400417574 -0.6812826965176932 -0.08139276977358062 -0.30100400173452246 0.18685461328419367 0.19702693177029162 -0.15937444600057327 0.1535681063224382 -0.9274143990850998 0.4561190185678965 0.07087939647756217 0.691244813675849 0.7251011107757691 -0.6732820217959817 -0.13440505117480916 1.4062166427969465 -1.0918073430164748 -1.5875360786640882 0.4711472115136568 -1.228622520037448 0.4060570764258759 -0.251453094419495 -0.20659317908838443 -0.38626555001697616 0.15073048849794787 1.4929423672967914 0.5063090778625557 0.8148826757629435 1.2801602210257952 0.8461998677820229 -0.27585251738518934 -0.18858622697373012 0.7657568986300558 0.5767242835344896 0.6870657183050838 -0.15590580963140876 -0.6147716223057086 -0.6011516722920209 -0.01266842340615194 -0.9630502271240686 0.5316449660166537 -0.38759415926297647 -0.07715340052558418 0.6477605284292428 -1.4112113519842622 -0.34490540355074073 -0.8718264652720336 -0.5951602212758746 -0.01220118388004383 -0.21865180543750617 0.7849168308450175 0.15275688273869178 -1.3329059180655867 0.2591755109274841 0.30214855106984306 -0.7853023105636345 1.28883869900631 -0.2777773064446316 -0.5685033183853188 -0.22595231562832835 -1.0507697922849373 -1.387473533672111 -0.21021016342791082 -0.06463812200605264 0.7720262033005594 1.430194429160259 -0.820107842404958 0.29274412506239883 1.4666758067100074 
*****INPUT TO HIDDEN******0.1468740104550975 -0.28240960671455195 -0.1769832075108372 0.011711777877747711 0.05025358164292783 0.21589259593116467 0.22438823409010808 -0.18169682334185444 -0.06445488950387737 -0.06276025856753369 -0.11149160802672585 0.1622375557275736 -0.028767508850478775 0.2120962351765102 0.004329396619337716 -0.16587102862732817 0.005682525178074979 0.027759287656924134 0.02998829855111343 0.1539673329491917 -0.14234636966239197 0.031499314469708384 -0.05154111756161521 0.20169792528351302 0.08898069164201014 -0.06021958778640643 0.10078691311895799 -0.10505157970123633 -0.07492736462447552 0.15414031011685825 0.03950535107415183 0.05757302568510038 -0.016088253053227947 0.03348222973625762 -0.2047673983043154 -0.10983959994329973 -0.08280684437867505 0.022883933033316026 -0.03756725684556485 -0.06419125964859744 -0.08645841709394832 -0.052344218587383015 0.21366197743161838 0.11125902560723665 -0.01695325535843188 0.03386614638160679 0.2114909464823118 -0.09456910843094833 0.01870093456581486 0.028877160984773408 0.06506864212441679 0.1096036740226924 0.0049750763720259735 -0.1495606940324939 0.13051896226747947 -0.08228344414193449 0.044163360255694464 -0.21966632860720348 0.15062140506644314 -0.02866826051129444 0.008114368986346954 0.008886006829715165 0.10363938023060193 -0.0412460423909378 0.042108638886781735 -0.21650131408534656 0.042555600206448156 -0.08533586878756566 -0.1139904090384646 0.0542302047163442 0.06606457788978498 0.061435463865899244 0.13157217590442594 -0.0025878877217997203 0.04595738654275323 0.0512997626843942 0.13770047148690712 0.1885752047211516 0.046625423427620855 0.09454338621929415 0.0686682392993733 -0.2545584999131114 0.06397839575573185 -0.0663893215609493 0.11822719127521311 0.2365106021805695 -0.036002745234731744 -0.011942064900118279 0.047065598731623075 0.07883515120072254 0.09399992898362972 -0.07057392635275249 0.04479296153991527 -0.0621551426653435 -0.07692389279725448 -0.12955564212840046 0.18914516056273548 -0.030264795358950585 -0.05491365867869714 -0.02076264085478849 -0.0037784151958123995 0.022945989604878644 -0.01476498632873661 0.026802995041773327 0.06284866945192973 0.15070448793798866 0.16503490227060316 -0.004288499950879558 -0.06930486697384722 -0.04354394933509823 0.12476864510960083 -0.0627094003953757 -0.024969635592357157 -0.11771218265204555 0.16725244732889902 -0.12780213846985186 0.07241206205807088 -0.037637540619276495 -0.11685635086808077 0.18149349498182818 0.128473691201973 -0.21731260055259752 0.021174015221315044 0.03457879294491328 0.16076287258447683 -0.023089410678007728 0.051957358429950244 0.19592732960627537 0.08826394821070734 0.015779696759445183 -0.06795861408635953 0.022294598219318888 -0.21151113725721885 -0.03589954833096411 -0.06065421901907731 0.016489082809489325 -0.032999955191903574 0.07634746777601473 0.02189640756323921 0.13207701721819615 0.035885600292057084 -0.002890863561131326 0.09219780369944913 -0.0021623502963995255 -0.04502030973602547 0.2324576635416654 0.10896479504967549 -0.02925376802282938 -0.04096632317998796 -0.22780364255386704 0.07819115140678032 0.06251150238820219 -0.15747575831133587 0.036557786821916925 0.03340249672614515 0.008304383580672009 0.1020946593036689 -0.22033180290246024 -0.03261685509073614 -0.014303464235443854 -0.05892928921428253 -0.0706570302974337 -0.14378431747250092 -0.012394601262781068 -0.033449765625362435 0.08459180578089966 0.12595401532168787 -0.11541481090091951 0.23768690780996832 0.05580675768133759 0.17337850653742684 -0.05971484965465878 0.17749438225323755 0.08206907283303064 -0.004186101350818798 -0.13428040248376544 0.005244178473444802 -0.0985999626135599 -0.1514921757504578 0.05269693689208371 0.03299721115134781 -0.08796363900416419 0.1011242423401626 0.0764707517356395 -0.05988984347552769 0.005346054035928999 -0.12873122219684854 -0.44823683199775116 -0.10602999730495959 0.056141107056950426 0.058539516918032546 -0.011426505666120374 0.21173845143850292 0.12192140617390616 0.09329422724902174 -0.34828675201366005 -0.025592775230079155 -0.2270164250286355 -0.15219579563547606 -0.13236290203978077 0.039881536972266145 0.08676670023502074 0.09761647452388664 0.006130008195489229 -0.2740582857365072 0.010842017047030845 -0.020049988740182746 -0.009329356416285928 -0.030549922175875346 -0.003769243955570874 0.1055336335310421 0.015965336317445924 -0.12548265752676363 0.024557110347346985 -0.09996741614463377 -0.028734430945406106 -0.30820100473819767 -0.28221497931370865 -0.11126445491060398 0.13546453872970254 -0.11092311844710505 0.18589291397888508 -0.011625186141781431 -0.11639385889147845 -0.042117779818834564 -0.11030700323043982 -0.05610843084772315 0.28215060332527325 0.007043473138684366 -0.1293708873785844 -0.0782584212766473 -0.0943035431453001 0.09763284581302263 -0.4961115774973452 0.07647540009275183 -0.020158481975451552 -0.0003628001526295022 0.04909119211480774 0.01642540219936723 0.0030592345615379373 -0.0904047955130332 -0.17259335415262925 -0.14311254941759147 -0.21128465519601947 -0.32342115564446317 -0.007678834442552389 0.010578386776992544 -0.11603617275362325 0.049591816915097765 -0.03392144030108346 0.09144048635599296 0.008062587495346055 -0.13210651810299034 0.042242252088423284 -0.21683295236485478 0.11211632337482436 -0.10027084297635913 -0.019545336338397903 -0.18062440549503514 0.023198847517946698 -0.05164114964507505 -0.1553368432950993 -0.24809243471140371 -0.20971126451291755 -0.013006508905054389 -0.1078312117151907 -0.17881824483694933 -0.037680069120044166 -0.03628489586151172 0.04320996358238196 -0.09475249008573217 -0.40455708692734527 -0.17587188689316494 -0.327298365496283 0.07463787391137262 0.2681059596341163 0.028980342458781387 0.24622568749235016 -0.08830634924853356 0.011582302276162765 -0.015024921779457648 -0.01632415047619138 -0.24567266489155493 0.15054294111695943 -0.1056859707084687 0.09543880386671905 -0.032710249209827444 -0.0763179766063382 0.10623086118361184 -0.192396523880837 0.16790713237965346 0.12789628398624042 -0.125027534986686 -0.030530780669275708 0.15987978642189676 0.10532391712864926 0.19328336116569553 0.1226380665790499 -0.13249196223949689 -0.32060345360818276 -0.2408406427102148 -0.20715169023357916 -0.14328860104259342 0.1170562796190754 0.22294612562854643 0.22591131791262478 0.10845209962063415 0.10248227628010699 0.09692873474062129 0.03273321110545563 -0.00017657889110260158 -0.015995393343254442 -0.10214930213544955 0.050302990255265294 -0.07680035871183097 -0.10090192309107317 -0.03914732368986948 -0.028012282231582218 0.018897780097450894 0.03409053263698779 0.31041887439079907 0.2847146017671638 0.35368840961932146 0.30352639219636995 -0.03384907880242049 -0.1761594975763331 0.02853144313444218 -0.2580796668593801 -0.34958417440906175 -0.35337509925895216 -0.1019005742349116 0.06122359164932764 0.06349026592205176 0.18912456498506203 0.1665661872208347 -0.07874225399483882 -0.0044866015143503945 -0.09690739782479922 0.041745855192452296 -0.13584039496557 -0.007354501130923427 -0.2020821758094767 -0.24168729022252322 -0.027684992380565626 0.0968493855697854 -0.10894186224850604 -0.12456052040485634 0.033576665205994075 0.11572050771469139 0.13106869968900792 0.3117494787340811 0.3589499113301088 0.17039041444544775 -0.0888458615586759 0.15067935446665767 0.01971517130958254 -0.03893984661051143 -0.20525499758110194 -0.0460277352590075 0.022416365401240375 -0.159861924413111 0.035430434816198786 -0.043151512886947886 0.2050422737759701 0.19886000900946882 0.09714736005933172 -0.07480387982481294 0.0734734068128367 0.0370421744686563 -0.0745078702033554 -0.12873475310397334 -0.10262423284655042 0.18771851511584733 0.3074995852156796 -0.03796530938084313 0.10305913358354706 -0.2381764359681771 -0.0031380174841227565 -0.0029614169667470567 0.05223630591864027 -0.14644684655409052 -0.4024264093229667 -0.17482281999092533 0.24880653195541172 0.009754530389252364 -0.048013381578931515 -0.013479378998658156 0.054469165079269674 0.11263120945956322 -0.057979675716428446 0.06844987644768524 -0.04630303555489737 -0.21838179639884633 0.021563251185985836 0.026044045141841686 -0.021485806486637896 -0.17990801165926676 -0.11729990061986315 -0.2066208451948366 0.02562361691228463 0.18757463522905654 -0.02218872108293192 0.17099711106246857 0.1476839355837563 0.09525104637130415 0.0021769654191618874 -0.09232490949046082 -0.07582985007170165 0.08450102814983065 -0.0016627045068874833 -0.0038821653042755196 0.029910800757340206 -0.044054295230517175 0.027265771043099296 -0.2534357846312806 -0.104272487861471 -0.19116211201812905 0.046988702631467226 -0.06866359231649109 -0.0012483096683601265 0.2372078399214665 0.0049663494316260805 0.12524356713879217 -0.13602111320320998 -0.1381902148273036 -0.08834601796453735 -0.06810309393726398 0.1158720505388349 -0.04961216503939528 -0.11233563524533213 -0.08357321747310226 0.1782612143701221 0.1559161224258357 0.03419718158651704 0.1164156559441607 0.12252096464830056 0.2113670434883813 0.1394511691521775 0.011310774321293592 -0.06347241224931227 -0.05209575967624171 0.26642461744196566 -0.20928703549188427 -0.036558270738167795 -0.13388796652653587 -0.05316439461286657 0.06230352687531924 -0.21112599568856433 -0.11235051969343562 0.026467743506953616 -0.16446924098267388 -0.14150657638004407 0.03870057740737462 -0.1838206354493626 -0.19067037607386175 -0.2338867086732381 -0.06250027405506854 -0.1513395078901362 -0.06037950088163706 -0.055140486615530435 0.12825965962126845 -0.1584582373335202 0.18362642679197427 0.18812865730976566 0.1099343776976297 0.1136664021580247 0.3810836368331225 -0.2507766118748895 -0.06254056250826384 -0.1063758736978293 0.041226201152372105 -0.19509338957793734 -0.2560591457814747 -0.13760088381473026 -0.20182389916267426 -0.016107048177095715 -0.01481294620923622 0.2018873493405326 0.02384682930609991 0.17316723996193314 0.09320203844987321 0.02504264052762921 -0.22549446675325582 -0.19446674433605834 0.06540916859941949 -0.08519478023404867 -0.07899892644091955 0.03237396962252742 0.05967560060127201 0.13237734844451896 -0.17653504747300588 0.03586699432729002 0.08754998546328446 -0.17062663085713248 -0.004321679001913718 -0.10973994199749172 -0.2659498724998586 -0.31011228023191767 -0.007256841519470621 -0.13990564411562598 -0.15325236438523382 -0.18260628250261352 -0.12336278167515685 0.03874384681221436 -0.19671103644933058 0.06785635055684984 0.034489767693288265 -0.016758785528559472 -0.12086823794462118 -0.1576844576149471 -0.027281616981340167 -0.4060192056191514 -0.06114192377410286 -0.2751677164516335 0.004818986454326854 -0.03098863768916577 -0.14346308525865878 -0.08996538827142003 -0.28382877411628293 -0.12442703088179019 -0.11955839469020076 -0.1525777422651475 -0.021051828668783152 -0.08134605607131373 -0.13534285594432768 -0.21978029340733438 -0.11712119760761677 -0.04701938658862658 -0.010626575816054437 -0.14337673229265546 -0.05815980783218684 0.20054794859291789 -0.139425053752132 0.0804689965282022 0.05872089982078679 0.2030424074687452 -0.22531116562049977 -0.05710182519315747 -0.12689083017535488 -0.10448029981383863 -0.005746681603064413 -0.06810769178257708 0.020755464187201762 -0.032053654015118026 0.06416315091945006 -0.02376837091537542 -0.1290984618325334 -0.035301600040649986 -0.08525212469636781 -0.058654214158462246 -0.10036532970804701 -0.17006559772033294 -0.09164856590023734 -0.0016424723413362929 -0.3169063858197813 -0.30077329409947795 0.09740360643817382 -0.15981054654573057 -0.12910409865434894 0.02556509578819193 0.22978230996737628 -0.3127286909721867 -0.11707365416928905 -0.11646262189240751 -0.02199807891711899 -0.2443186771386529 0.13505727829381325 -0.12173521138753537 -0.026246446392328017 0.08271332348850481 0.07984579442100713 0.07135210781636864 -0.13489188455967574 -0.19392093903230967 -0.16209918041436372 -0.03266877569141004 0.06060358318658176 -0.027421984910285024 -0.19886686503281142 0.097791372757479 -0.12810132193062923 0.02822871056412056 0.0258495752879653 -0.2444745497905135 -0.08650813865452901 -0.16088129269586732 0.04212849630833782 -0.07567047783618339 0.050615469404901935 0.14028741886993767 0.03395251694140468 0.15072740242512064 0.1770026535172873 0.07023373703289698 0.12959707484400304 -0.05900992034591701 -0.13540703686424732 -0.01897831875213985 0.01813863352343797 0.005205950069153007 -0.02407438815140988 -0.016217787328698764 -0.09462296473482308 0.10578710348064273 -0.010351285126689421 -0.2069461586652812 -0.15061701922208526 -0.11429485316459356 -0.1191953635487001 -0.0015463367764965452 -0.17042409195561073 -0.0935123193493374 0.26906508887466635 -0.04084929851972641 -0.07705598303597558 0.18622003540129634 0.0021036456549461784 0.06332893851073847 -0.03278005162261803 0.20701608470651 -0.13949673471905077 0.045525520528241305 -0.019115084364322417 -0.006613092320796245 0.1353873616976263 0.26126505415974455 0.04570991796349037 0.07149193054699494 0.062143540292030924 -0.1130514073854664 -0.1033734411147391 -0.026800821078777848 0.131549111823073 0.09794781992904886 -0.17961208353514926 -0.08428439161447197 -0.1645263121738908 -0.1256189398340024 -0.14141813286588753 0.17802785662652923 -0.005263390603305112 -0.17827172886953463 0.028874599155806722 0.07605780292652851 -0.07905855176241026 -0.04954012619841636 0.19481889773512534 -0.07898237228808863 0.17149513104125808 0.12791744058470209 0.23486062131295146 0.12437715533494005 0.14524634969103653 0.1635957709155244 0.0920084988891539 -0.09899624528658686 0.03540489129314054 -0.02816109546293077 0.033369676111975256 0.10973556554916626 -0.09134888044619807 0.08167746046764877 -0.05598340372589103 -0.0798405898185995 -0.01204034979553795 0.12362289764750539 -0.042635002012397755 0.0929243714323632 0.0455170054135071 -0.1352389145500029 0.13585146834255474 0.2117149713211837 0.1139125248110708 -0.005763816669469611 -0.10525506796208005 -0.08792601674781389 -0.07681152761819751 0.1527850437036036 0.04432543234918457 0.12265703098638962 0.0749481530071834 0.18963306478708894 -0.11559371069743721 -0.01829965355062207 0.05363905338800068 0.02823679540318354 0.006838738989209723 -0.027065590709198194 -0.15790439999976133 -0.06724089556224538 -0.01094317771842797 0.11988146530336452 0.19402354773376052 -0.02538907410991953 0.1296568247318185 -0.027319430363391545 -0.16213487391431847 0.11205074249404844 -0.210933537064076 0.039606435114609366 -0.006082749263957562 0.2064185513471982 0.028893095916057227 0.14189914703225387 0.1886668535857512 -0.0339829502234216 0.08174012330315018 -0.06428400676229906 0.0001111624778407677 -0.19645797894508088 0.18252963797170496 0.07811287237331935 0.09886543930464974 -0.036141747682689435 -0.30458244179581945 0.25550968988846157 0.14555218877677334 -0.042565208842233956 0.06592874522152001 0.07222070897660766 -0.10481991200239794 -0.193911323227651 0.06064888030583963 -0.020529033879641116 -0.08190947668276638 0.15619911995031022 -0.15602467747114032 -0.028529535378519905 -0.0666233794237759 -0.09816610047547188 0.1442215284175273 -0.04856177814517143 -0.022006011860132877 0.06903443645936835 -0.00434225707928866 -0.11521775390009202 -0.20214311475151378 -0.05343961719614483 0.10385519169620583 0.22110573104667694 0.004431381942767121 0.20620455426087697 -0.07040270261309668 -0.10683986596998596 -0.12188192711142135 -0.005283025771525369 -0.10804491308595313 -0.0845087978734098 -0.005511092445935495 -0.25501520054721494 0.2093035085241984 0.06097387231676176 0.05945672924260337 -0.2433320718698791 0.04915394336167778 0.05592133810283192 0.15608683080967148 -0.07240589521294312 0.2528052746774569 -0.0828716994025489 -0.14510315672095603 -0.010107301128534111 0.08509881128854127 -0.06232722585696499 0.031002156627026316 0.09735441755794941 0.23676332356386098 0.13166096444458872 -0.19548495261156337 0.023489560811400804 -0.029543335227621148 -0.09656469631242251 -0.018585017600650577 -0.0334325539741707 -0.0552281835680488 -0.20232888248019035 0.019060019924154955 0.007784680688649302 0.15573635869355093 0.08318488074280939 0.05948149228418154 0.12959368231801904 -0.10275256550312505 0.07205932215971307 -0.22575400205828314 
-0.3227860800114884 -0.004287208181131468 0.03649712785082643 0.008325959405209587 -0.23180145062191138 -0.13703976017578587 0.015297799537357132 0.04239409913422985 -0.0005580995057687052 -0.20890766482558207 0.05127298665128196 -0.05389087349221763 -0.012572127608335069 0.09957609831231273 0.034103177508035994 0.2263870204868006 0.13448863938234762 -0.06467800092447001 0.1693569989713015 0.053861942757859244 -0.08221747396530045 -0.07312011188983936 0.17498382161652826 -0.2077382931523713 0.14799205518710934 -0.04938127448735579 0.10143526028957872 -0.07386352758647216 -0.1549618123995873 0.14401011504224015 -0.11007064696237485 -0.10107279709217208 -0.008165515957969507 0.1397646559268381 0.10165401696545057 0.08985537390730547 0.11772640343572008 0.2993661716904539 -0.07164997449355302 0.07471491286390851 -0.021420410500440593 -0.22643489010014003 -0.0347538204735119 -0.023930934707529182 -0.04696287073233753 -0.0644210950109975 0.08042498454814478 -0.18580538535186214 -0.003918291859795209 -0.10303289497750164 -0.09317608166222108 0.3443097246712053 -0.01387134640270698 -0.24593064175310556 0.03883835134152688 -0.11057602244393308 -0.0782575249603013 -0.12274879904837882 -0.15861532200502673 -0.06907263159150245 0.013137518532967988 -0.09228616771111042 -0.08445968916014078 0.022143384346737197 -0.048615760898693246 -0.07967202375514416 -0.004368475830905049 0.01707586566238951 0.12107648739818659 0.06077012968677433 0.0235929092116341 0.0041420630269253435 -0.16660796357633992 -0.0925307888079317 0.03410767274953829 -0.02891094314229578 0.1722586208429164 0.30535324881939757 -0.1386340172954384 -0.005607895698036734 0.10094875737214225 0.031069282989781642 -0.04974096760092721 0.005472362736217861 0.19948222226099127 -0.0458499049992659 0.02074348021059902 -0.03291997178517076 0.15931743434992116 -0.00974658347908488 -0.019346422673469945 -0.010874250955691021 -0.008758644043054336 -0.13119442332776796 0.15242030238015103 0.05445531727267537 0.2313406889090755 0.10130684638240275 0.0818786152166254 0.018856933321594136 0.28959145810880405 0.10739821711206941 0.08624105625628968 -0.11182164572449267 -0.16511643639547172 -0.04932323574158127 0.15607333453710773 -0.005897644104317972 -0.06182066991913965 0.10625716603950579 -0.1935702239575603 -0.1393165202953924 -0.21827553741034178 -0.11814558747279559 -0.09604017578856396 0.07627249845397001 0.25951282493999384 0.09071150304529746 0.003119661447376237 -0.28229410208627104 -0.0637819180395087 0.0013069164855869775 0.051469752125415165 -0.14058171754547633 0.13601862024771347 0.09932620020230039 0.118899231489111 -0.06444182585107715 -0.13528309521843637 -0.29820829562104717 -0.13002314898083 -0.048778350657764244 0.30677669055961104 0.06644644930145693 0.055640020357552805 -0.10300212854487503 -0.05414756537152425 -0.08647532234388068 -0.08271898645235057 0.02755873980176496 -0.02247314574493253 0.025576491113541548 0.007493267832123721 0.3362216096858433 -0.027444792453119052 -0.13451931555182967 0.04992373015166058 0.03960369896589211 -0.09825685347618483 0.12485973442974138 -0.0390837527880358 0.12169034294147062 0.04481460966182196 0.22758669856061528 -0.21241938673222985 -0.11669819154537733 -0.05733905555611991 0.05455807915089104 -0.11015863389634598 0.30628963134556664 0.301554354226731 0.03740038102429117 0.12996323436849866 -0.036905784494743035 -0.14215647584759633 0.13555694805147847 0.11722915944243152 -0.09123525129675351 0.2640450960759155 -0.2555120335759976 -0.2807891069718279 -0.016256224213991925 -0.1270799816733478 0.14146581987686796 0.07162046973972386 0.017445354302805558 -0.10631477350352306 0.029803098849734613 0.07750463438608159 -0.12052839204312543 -0.08055676829431879 -0.015431266231143213 -0.011399885861780328 0.09578691843141716 0.022266020016368772 0.23128303817149565 0.32741492630047014 -0.057594952549403854 -0.029373276890892724 0.016825795101749884 0.10634559212026233 -0.16632309778530657 0.08563012541470948 0.2151980037040996 -0.00021454352501048922 0.08453957750182949 -0.1305789864674707 -0.021382094350785974 0.2676568829105759 -0.04376720205004278 0.026676279002902193 0.07007681085226268 0.11403470847343915 0.23187980503899408 0.013201505750796042 -0.17124401801155342 -0.1034989267042314 -0.0902361604616298 0.020028260113273307 -0.05170486433140353 0.18447197515869643 0.27167860620673384 -0.09319161290938134 0.13598920346999174 0.00041184271561100263 0.1780923169381053 0.04062821836221855 0.20041971774325557 -0.05918135741792888 0.11121452325093319 -0.09886321052846082 -0.12402212174461441 -0.05719032574866483 0.08221236214894502 0.1144174176036544 -0.10803468313908518 -0.03738923385201492 -0.025132470520532465 0.07302240055156901 -0.06320085492679281 -0.06724840461150125 -0.09791112044655519 0.09455782041252292 -0.18923719941747638 -0.2985031502022309 0.12074284193102598 -0.08081663504674773 0.20746600151056876 0.013539195550993255 0.15813813564874019 -0.021812045672496234 0.17066552054454234 0.10420497814096083 0.12115306334805438 0.21674230004172287 0.14491123929536123 -0.07755345323059644 -0.10463095808246212 0.016415012095864354 -0.3882296372366755 0.034431741002902465 -0.08715699503433817 0.013917507614473032 0.08672768805481602 0.09895250680536256 0.23382179709194367 0.085563812227283 0.034498807854123126 0.009063253528508938 -0.09371864751950683 0.06783872029075341 -0.09416076101969768 0.07758287056318981 -0.15164768707700252 0.0007319682922643667 0.1605618488210394 0.052575488573929186 0.3446707276684963 0.19199770669696647 -0.04557494460602408 -0.04508406260661428 -0.1703088615590392 0.018110859811524174 0.07562005597575999 0.20553647481486395 -0.037886601637923366 -0.07829876667246766 -0.026343543718720656 -0.10287467121311329 -0.0003434198740103203 0.18226509778476746 -0.004634796199190052 -0.24098173694539246 0.012889657686580005 -0.2189312960068843 -0.060441999228170985 -0.11210811882016725 0.0367611476408366 -0.07534548325439978 0.056939267041063835 0.1353848792469603 -0.0016100241471047009 -0.18428262934594078 0.283561530217271 0.12505689481868731 0.005031889231189778 0.15486331122568311 0.2010020885570327 0.14619582807493295 0.11329606543641689 -0.034932803925329776 0.1787738739088292 0.11636372307922355 0.14111410675503935 -0.14066518389202867 -0.06252804824796805 -0.013089282671614388 -0.04032938724578695 0.08542280737244103 -0.05660072248244541 -0.013387685225632252 0.043704701533482784 0.1602280254087899 0.1492783490138001 0.08057543181523708 -0.14174246311731262 0.1477497846747073 -0.06770422486810379 0.051837002269903454 0.14537704018547032 -0.03967415303464109 -0.19903160694777317 0.27995906182157154 0.29435818659379087 0.34442922678494436 0.11902860779977475 0.054676287464026856 -0.08016643049763064 0.17396635896877022 0.030094317309554405 -0.09882760567484741 0.07354976252551405 0.05654400788376981 -0.1003589114878365 0.058222412065284876 0.12715335511125817 -0.06934387021970213 0.05851023384402336 -0.2743358864566517 0.02048171415709004 -0.10221085638842341 0.10157453329518609 0.21392907532967842 0.1441180846116807 -0.03648922409708627 0.11197272457774268 0.03065538437181713 0.012330888876897322 0.09760359543954258 0.012452107904476852 -0.060190790266259016 0.07570823621222421 0.11368962265274112 -0.022576283852440853 -0.0027077224815543846 0.08233726034775807 0.09039833321421033 0.16096049852278801 0.14267642647491258 -0.05414446765496726 -0.10598756966548452 0.09264446667923087 -0.0018235633007209553 -0.18634543952374716 -0.13861459970240023 0.013163508867981774 -0.17839422428065146 0.004047000784921045 -0.012499893841012426 0.0874713401620702 0.02458422434517047 0.054464016916205976 -0.13727257358566633 0.07643553531746555 -0.2758801311686899 0.2067811537319543 0.016258140251469492 -0.005009492166472518 -0.011636613549198786 0.12255369225544958 0.19696373026113115 0.07216818760695441 -0.07056333607609128 -0.16099521642751313 0.052970155809173095 -0.022963133741596493 0.1623908189556495 0.29539245224259014 0.1523858631781841 0.05038319607347396 -0.20426248542069572 -0.17835883235761213 0.1613217522020053 0.19084756765620142 0.159182884490933 0.06711032472521704 -0.07934941644209662 0.19080172219849723 0.0738693120447803 -0.3367033663072116 -0.05643394221582026 -0.08768989158060574 -0.07793741975351351 -0.07616166419512156 -0.07634822844934168 -0.0015714512384665368 -0.09352265473091073 -0.0852075841752704 -0.08325293002860118 -0.22252517426178361 0.007668893798094448 0.06355637936746242 -0.20880063400227272 0.06015250275028965 -0.03990452112923956 -0.0674207405991356 -0.03112312736807365 -0.0787525852343761 -0.15262908085751192 0.031449968973912945 -0.1682480956703912 0.13107727747072645 0.11394880935301804 -0.08219447007758564 0.06603588665535937 0.08719881342806551 0.14722620430598307 -0.1210511133944118 -0.015197634158438075 -0.11724486511774934 -0.32021744482256514 -0.12675818759718738 -0.10104501105235965 -0.06500437486782361 -0.11974115868260597 -1.8041310972537616e-05 -0.27335653224170625 -0.03201852761154515 -0.12500648492484587 -0.22007071364394426 -0.12277262776553993 -0.06188171881232115 0.1050297551265191 0.05673100567040495 0.23622983879714526 0.053891507310316 -0.04096226192933547 -0.18103048498951788 -0.05919970946814562 -0.18433135606135026 0.10106190239429459 -0.08534977481025868 0.1716107052767338 0.15162714696871044 0.04243127623123027 0.1576667618786857 -0.22584391795393194 0.07176442886941418 0.04589043159518954 -0.30936604166128195 -0.03265439292007299 -0.13345984999191868 0.07272175412788719 -0.0732653849421519 -0.07236334232838851 -0.1287900860073368 -0.16019831847728347 -0.0598101968086877 0.07170153848897626 0.1256251224867908 0.17006982076407867 0.09572025393642512 0.09868426881210432 0.08490758860308975 0.19063668305945702 -0.011829840970690874 -0.09158508679638037 -0.021846012644821472 -0.09949897952510049 -0.09880053538375899 -0.03850001374422375 0.07496668374282643 -0.14185469232170012 -0.1780744215086038 -0.035870659405932974 -0.13108325629327036 0.06260830336551389 -0.19202253622640914 -0.1003857335693178 -0.1316894343988326 -0.06363824942881018 -0.1721318714648092 0.0324956113595226 -0.03852113065808374 -0.1546019597565387 -0.20181782697361006 0.09650800880825823 0.2542879875162238 0.26990814242971317 -0.13514835256757302 -0.17262827122957597 -0.017800378784938276 -0.2970657667423491 -0.131201164261293 0.08641699006977162 -0.006196495457006321 -0.14539086519519753 -0.10772268906979249 0.02465281560955419 0.12714234196453464 -0.07527775586262071 -0.0014916412579949682 0.07632265665545586 -0.013892614875501653 -0.09373884068232323 0.03624167395166404 -0.02316959933780705 -0.1693703055978211 0.0742893834983575 -0.1439997368611834 -0.17285059564041363 -0.058538512282228033 -0.006373725189557583 -0.02794303209060928 -0.0032151327256121787 0.0016923142009994117 0.0888746119061183 -0.10054383021554364 -0.26461524049259577 0.009425876808408413 -0.17863863230862534 -0.20603115799097127 0.055454826160434546 0.2800314694329538 0.07425589955887459 -0.0025997984657102264 -0.026029619317026093 -0.13840496269223135 0.19861286012278176 -0.010272456836750892 -0.17748357288489128 0.029169762433598322 0.19444781201781314 -0.18641581301543378 -0.042696545454449744 -0.049670798975445775 0.13168593963947423 -0.06849820689740332 -0.12968622159208099 0.20810714502952857 -0.29746890420861327 0.26576070816102365 -0.09371490364569074 -0.07004994322354265 0.13272447341826804 0.24381807161530505 0.04252421219808577 0.15672028352653422 0.0671761977140631 -0.19173991357014716 0.1356103905783527 -0.024580722654709227 0.041392665800773165 0.05271587452182445 0.22864217310114213 -0.06318563475312035 0.10881337447685001 0.07672686399100254 0.20294747818540618 0.05026844007466224 -0.11493335887344083 0.10188118484546228 0.2437897588574898 0.0804198119937186 -0.13825365279945054 -0.044070216995860015 0.06192046171167414 -0.06108211418624049 0.13293428834538715 0.009840172499415656 -0.15645884334855592 -0.1750551799779549 0.04685953094531283 -0.3029086159291222 -0.0960757388317647 0.01842550641909199 0.09282052025114398 -0.08265824171802987 -0.0041698603098331 -0.023095762480590844 0.09019775406612482 -0.1141317389357538 0.2215480883369998 -0.022636394868458344 0.08751411061677429 0.04025424563065515 0.02793685634844274 0.12923108588302243 0.12923060826638358 -0.12530307040683014 -0.051719721099783206 -0.018425169354776196 0.13580681216859466 0.07339689108765544 0.11441350367180751 0.011751394036099507 -0.08542125949303331 0.043033002132169595 0.09115957310481856 -0.018902585567457553 -0.11857414591709038 -0.019963370922502978 -0.06243067207348484 -0.051190832288259554 0.05767223422907269 0.022850606518662914 -0.0431906447854769 0.12504057095522506 -0.03239171278555214 -0.0038197760812240964 0.09481828567942503 0.11285690226934976 0.06221670004053827 0.023273913228981386 0.135985636969649 -0.09378125625513259 0.1566407033587352 0.12142585940814174 -0.040751156678702945 0.06840170022471394 0.046408036285680916 0.2655813617023003 0.10140032032255364 0.051318292887168285 0.05641555855608154 -0.055366959819956686 0.0947545218627887 0.2663293497174927 0.21157988272686093 0.1024478216934911 -0.10307914274411781 0.0143355975723275 -0.009369348714068363 -0.00033516188385616783 0.055528033506230916 0.028066254171764324 0.026873172101852295 0.2886984743941158 -0.056376355805617055 -0.09536134954583096 0.0024651176921153123 0.0071692699720455055 0.012592145033107715 0.021178943973824003 0.13771643147553453 -0.11114012062453978 0.09390888860465191 0.2558014041029963 0.03182591742552248 0.17678781890315504 0.18025225979423926 0.18395106486743584 -0.1482703490192938 0.10661043225383533 -0.07053825217598957 -0.08850368756258369 -0.007722006932245712 -0.026620870772210307 0.10593724943686193 0.03164354693190938 0.07021342880106914 0.17125199339454247 -0.18994075332815538 -0.07384879155964645 -0.12017787059784012 0.0411053618979228 0.016611395107194844 -0.0930864763190471 0.1280412370723417 0.04488551969832491 -0.10252168894757549 0.10988327371339131 -0.05464071816032796 -0.2253434241978584 -0.2179338931630065 0.11488973592353421 0.13361173135555102 0.21639473638927312 0.1831634186206228 0.04912152609362912 -0.155236522707501 -0.2790681293835611 -0.22544698608702407 -0.06652612235502545 0.05949444438925838 -0.07894114358299921 0.01264582492346543 -0.06332955509523795 -0.05695707174920491 -0.0842867807824136 0.06895936519220346 -0.2223626280561274 -0.11552149376360295 -0.0019724073070846804 -0.045357663315639854 -0.10708620416658045 0.07291123285861961 -0.14139224054468005 -0.17868057852084124 0.20675744740785892 -0.09425303630079078 -0.05866966420952682 -0.0249556881530787 -0.19531313214853174 -0.03287580871471604 0.0376747395144058 0.256178465858013 -0.12386698128044953 0.23274675964388822 0.16207897933754303 -0.09507213624974074 -0.2577421608913772 0.0989446245319079 0.060983260325007414 0.1343393574299625 0.039544501784021115 -0.04905207286118326 0.029414541219099855 0.2701256827651482 0.028176356744421975 0.020142114687744538 -0.10197287389623863 -0.14220016962265128 0.16657832844980613 0.23593676267591024 -0.2071092785658951 0.1450211202271194 -0.001144327476276952 0.06861089498018422 -0.09576966228007115 -0.01260533328310583 -0.15992748873125714 0.177702779749014 -0.09410289248902218 -0.14335658869115547 -0.20133425217505788 -0.15230800482394571 -0.036917070771115924 -0.2815434295171074 -0.015290035055441522 -0.0258283954464889 0.06390017991926536 0.22862163771493116 -0.10751502920745444 0.18551393857678766 -0.12937700496545518 -0.17555382936901126 0.09276395996720531 0.1491178639745707 0.14174316515641072 0.13114135334564736 0.053782650748550626 -0.09768142843149182 -0.16762158587975542 -0.023647555337142603 0.025482826478208338 -0.054857705894598825 -0.012931126785263456 -0.0023657643429201617 -0.11610912738647881 -0.05141688380828499 -0.11220950879253293 0.09897862644983692 -0.06156497329064207 -0.1337405389822874 -0.06020156436425449 0.13460825894900919 0.05551482083196682 0.08545498013101382 0.19629137772501082 -0.08243213050297397 0.12475721624880994 -0.1387224815390585 0.135442045364929 0.2035956889254281 
0.07857417948528689 0.12831544148572707 -0.08860413528547423 -0.13266103481823593 0.019086903270739648 -0.027509327634092574 0.033399399063480203 0.1729600133386355 0.0244469611910399 0.1700426709155617 -0.10531963858129492 -0.14348907262488442 0.2329513491230421 -0.011213809398153996 -0.04063042190914488 -0.2740198403181518 0.08369442697445284 0.12977167037387954 0.025169611296658415 0.08551995683500592 0.0007738995498710731 0.17113635717153083 0.09818105736308767 0.0587091236875888 -0.007974226983313808 0.0011692552794670438 -0.19437980961567528 -0.01834299001067611 -0.03338098668890089 -0.0817372574088402 -0.019211552020731517 -0.004271776684609471 -0.07677623142247832 0.0560852504531079 0.02465554127128555 0.04714024172823035 -0.019088648200775826 0.2977451202870318 -0.017123027460780375 0.05678163602678418 0.07862314213120018 -0.1737671931894204 0.22911412292895364 0.07246639262992541 0.23680504017085802 -0.15923029441136602 0.20476208339082963 0.11896467775659335 -0.016691480770851322 -0.043371232092956034 -0.15175923780507838 0.21321588355220344 0.0939117411622939 0.062106244604141006 0.08617240121544917 0.08331577701962799 -0.026590926919584822 0.04853032283416401 0.03353818698779558 -0.07256834787954329 -0.09166175410996415 0.09746614797754029 -0.056841110666988034 0.1409341143190122 -0.050401827624073206 -0.18836106504656788 0.07516185496817548 -0.026437329377246136 -0.014477225613723443 -0.059921097710875164 -0.2169876043844429 0.014365011772430134 0.035210650606395 -0.06015306895837667 -0.07529483802989598 -0.19731944559729023 0.13355656690735607 0.08939098917368377 0.016969628370870248 -0.07886857789388509 -0.038435829205607445 -0.0238636173885903 0.03680687046159212 0.1693825904352851 0.15361717983229567 0.12686868639113097 -0.0015445115911626394 -0.06002666487819252 0.22300878450930695 0.08441738696901646 0.11559164595792248 0.06297725861780538 -0.025136352225638304 -0.07345349992462018 0.048729582702109385 0.1808464336689978 -0.15416745500085496 0.0681971379859872 -0.016243947082259156 0.0797796774174275 0.026147186476230013 -0.30751844261635575 -0.10837619828100716 0.00879975173363696 -0.22071795147593684 -0.23635983373494646 0.01789648671809653 -0.1340089519566509 -0.024598516938873334 0.02615360268748684 0.04376612848002853 0.039118113916615536 -0.14898999308067692 0.12076830281779333 -0.001918512857711745 0.11528924760031847 -0.09378895909586185 0.01482811426613547 -0.08868294748637097 0.10856856067546918 -0.007752734604369725 -0.10393880246103535 0.012040018526415558 -0.13426842865597485 -0.09725004533131737 -0.09538677971721973 -0.13668048903538274 -0.07022751780993781 -0.051404630646847874 -0.17607739281313983 -0.0668499615642793 0.11148813610325473 0.2398536231275536 0.20940164869035546 0.26754593901060414 -0.1449024984309897 -0.05926775265485649 -0.10221071525158656 0.04896142284045554 -0.08081468163719908 0.03208557747406788 0.06262032670229167 -0.0006771821621861213 0.07312808411877636 0.0382287487298177 0.049951617391601616 -0.03615349438537056 -0.16503862730092678 -0.0930265815072291 0.01365378771827814 -0.033795783869748845 -0.04524720533691478 -0.22853174600914336 -0.006141362968042235 -0.03299699031668764 -0.10158127888570932 0.13886455713096474 -0.14600984001527242 -0.061457668737815996 0.0796471280169678 0.021122752038078497 -0.024932261237265285 0.12478012603383824 0.017860726899948366 0.0843840897605876 0.0023350162348144445 -0.07451584240443947 -0.07880887491136879 -0.14864458831190155 -0.15391042501608304 0.1246521720717765 0.08001758119393551 0.0576510411100443 -0.1641417677628686 -0.2423681927310148 -0.11400743680527504 -0.07656198813076258 -0.1832020662864336 -0.020223410215915227 0.03023066385029305 -0.16975680245511923 -0.24772747497570152 -0.006908759012887388 -0.06837379287630277 0.0009278842799282197 0.11046431762367812 0.12717918211099902 0.1595217237074537 0.18657020349016365 -0.025628052808921824 -0.022652856361626457 -0.025458540937998913 0.050049878756197305 -0.20824448319911612 -0.08073663852643449 0.09367774324913751 0.018718417287452 -0.06763740653660263 0.05809225537127323 -0.026881745139272228 0.05895885977045935 0.08813252618847446 0.19283424521474588 -0.05210666546951784 -0.06461488217576371 -0.07687789021624566 -0.00862999466637841 -0.4347253471725256 -0.2160100065390031 0.11741215862253944 -0.14228986817849973 -0.12825307853951362 0.042920216924237704 0.19598567149614707 0.020844794158306708 0.002940581649375278 0.07784685538211084 -0.01891127765395759 -0.10229628097228959 -0.1940205536061508 0.08572097400011866 -0.20292607379251612 -0.06585463565324237 0.1426115930381644 0.08473618077191213 0.0004296204575476486 -0.04852730105611913 -0.007549967705761183 0.040890394980361254 0.1675311029734775 0.07141432943616216 -0.190274414928574 -0.10431233202133493 0.07736438493143265 -0.13711729070596884 0.16648849173847435 -0.0644607232798284 0.12861820761521844 -0.25507805136821804 -0.08024356587731732 0.06293934248933904 0.09752025560289958 0.17186065047738233 0.2272310283601145 0.2808658292144602 0.08051131757895116 -0.3510516679601674 0.05772738876499156 0.03271409136116048 -0.1719076837214361 -0.08505739995139411 -0.030347685564742984 0.07454162094883794 0.29718802607166533 0.06066757408160409 -0.11803674083223668 0.10540618796573312 0.01582630867474562 -0.06951187742178616 -0.21198568140141674 -0.06853621862272097 -0.06683111195482845 -0.41522388672668986 -0.19557856776896151 -0.10216530049986865 -0.13126849406665342 0.12841190176433426 0.3169667301693272 0.08819898288486967 0.2529428759614814 0.28680843832320063 0.048709761590635905 0.2898312963659539 -0.0051035694746539 0.061373341597376535 -0.1316431014820571 -0.10599875154888971 -0.12915554205543006 -0.05549714006430396 0.18299589228589608 0.09381421982748275 -0.007332124395143794 -0.07857608960366247 -0.2093489099158713 0.15939984004220917 0.11488602861641903 0.28428626780769023 -0.013201574051442996 -0.09240998833439691 -0.19235612877060745 -0.02933888025021411 -0.13278165575399656 -0.09010537132706263 0.010928186043547367 0.05608646545580709 0.23867229833984485 0.1735737897372436 0.011555040144859455 0.04355783904722049 0.13847881479530608 0.142168648258196 0.0906815680061063 0.17079948145260473 0.31278732555058353 -0.050601286412606 -0.06410867568836189 -0.04662866292386236 0.1806660092390538 0.07278112550065743 -0.016263160361406816 0.029038443165814123 0.14699264204136883 -0.08910039908576457 -0.021347360603214606 0.0804528456448263 0.0017551867974625191 0.006732403655175149 -0.042610556818752886 0.07071583836558971 -0.25560588684536256 -0.34416654501849875 0.060528465198769685 0.15478962126079873 0.06770964690184011 0.012020773565243852 0.15081461211106706 0.1617024181694114 0.13230533820633544 0.05182486423046534 0.022850467218823955 0.3141541399639156 0.1588307655350592 -0.1028447508093507 -0.02396703171380226 0.10297999393997108 0.13266311991249072 0.028004004813840407 -0.09618631456603241 -0.1487883226944763 -0.005670648483356088 -0.03565944947520834 0.21461351483873162 -0.07546129215672022 0.06794469502589329 -0.11741043591208601 -0.16755497146271053 0.14656828761833657 0.015709111378952235 -0.06593417259562205 0.10148747615744444 0.038166831240928824 -0.08935927548649455 0.08780074445595255 0.14774751125997168 0.10620995576901814 0.12417866300150637 0.07465225316524746 -0.2587283982875061 0.3153162302082787 0.1198069126234472 0.12154375701734149 0.04896013914634771 0.008693075246793082 -0.04492887438524035 -0.09338634848549525 0.034016041607581045 -0.004738646722326151 -0.20624005487634656 0.09046988979525075 -0.038657056961397304 0.07925786164153492 0.2245212932283283 0.10339094209580219 0.10304655058756818 0.0009347081484977791 0.05205750360671749 -0.053924490920464425 0.005047415308945209 -0.19717792053559294 -0.14177182821834375 -0.12767228953769777 -0.1509672747627172 -0.27490533508474896 0.0913303217712428 -0.15687475889623675 -0.001096813773017748 0.3029388751463015 0.0035934292973203493 -0.0020123163780381374 -0.03698881469838515 -0.16781045006051806 -0.14735487878138864 -0.09431836692701578 0.024699074856643882 0.06924804997646966 -0.11237596247842659 0.011893721854200442 -0.07753835687662418 -0.08666657982188998 -0.17991293066418226 0.07380576346847259 0.21562904609561367 -0.07658558170628099 -0.10010402534591696 -0.08653313699055193 -0.08070294919138922 -0.2773621957690851 -0.05221242120828725 0.07186443458852147 0.10002647826291537 -0.20065637574844797 0.026281131033437866 0.02177079924174046 -0.1094991599438323 0.21520745508646327 -0.2379741023292276 0.02005724195739394 -0.003969035600116559 -0.19843374173696626 -0.03680977507449932 0.10009696212963151 -0.2662629908706517 -0.0836748925275926 -0.03433060574666046 -0.12471978140128687 -0.2632726449158106 -0.1435605405114191 0.17165395531273173 -0.15003617360026067 0.046179570789628796 0.05716485902308056 -0.0336324757540143 -0.07995946260081238 -0.24612088420408845 -0.05177021887420315 -0.3817170570007448 -0.07668761998886195 -0.12195561287303963 0.15919951109151126 -0.009218099455514162 -0.02834513187742238 -0.048802345757873566 -0.0816669610820136 0.08084461988039847 -0.1704497348072656 -0.22794758527976564 0.027560863413645133 0.07152978270975331 0.06393783125720919 0.017122478582499972 0.10079477400017917 -0.15769403111954547 0.020329474976076622 -0.13660199124211755 -0.1334845485642513 0.0138738368941922 -0.12272726904447896 0.05769744631789136 0.15594526259407288 -0.2518305019046913 -0.06428996199146848 -0.1857359924064987 -0.06115838458177883 -0.16463402029597832 -0.11054013536199309 0.07445256684320149 -0.04019289015079395 0.01042742992659424 0.06209057466524172 0.225817003021132 -0.25630832929265523 0.07751460034520125 0.06258019264326624 -0.26313707119359525 -0.1315548101887825 -0.19365365259093648 -0.08642256546212043 0.19910375529501328 -0.054925882781231505 -0.012698480940007126 -0.2782230961720034 0.03478488300554041 0.13426677662065645 -0.27265080218371357 -0.2616934587644119 -0.2631781016564447 -0.3399014517276406 -0.2560272812107473 -0.12950621617300986 0.1884824765109529 -0.034421300115101604 -0.02111099853286492 0.17223683829422493 0.218245948309069 0.004098820535937766 0.019292733455883955 -0.0044472981376745616 -0.06993347488515676 -0.010559914763966801 0.13857086844903013 0.06931691851879619 -0.11390377174695253 -0.20602219550371692 0.2753583669828525 -0.11675606543154542 -0.004899594341019384 -0.05360533451874873 -0.1513799438637414 -0.16919788187599952 0.03525542968669985 -0.17109500863735777 -0.42088988949198636 -0.251837058909353 -0.23144334633010757 -0.03616989595918084 0.056367900525092246 -0.010412180957610111 -0.07603392469480269 -0.19609657211602458 0.02106527928251308 -0.019739191141496828 -0.031095952376778153 -0.11102870230743708 0.19252200485265558 -0.03306185028038589 -0.0016583678313433345 0.1495184522207697 -0.12057525084965949 0.006255750438766302 -0.2665978377956927 -0.1447194323772302 -0.03441280993349329 0.02107032603096914 0.02971543709990308 0.07106695813821792 0.08005497578833333 -0.10347240819381782 0.06313488502623275 0.018602545600030537 -0.051949188820192393 -0.06761779460245332 -0.02047128116034912 0.09639966966266228 -0.03451603209499068 0.1616790298599625 -0.0370714935361787 0.04527422230857605 -0.18638509239217274 0.08600842515727698 0.19186369333761163 -0.110628234078874 -0.005097457520298085 -0.1153095768028711 -0.2720821599368973 -0.036759771662520334 -0.02120533654039543 -0.06890131704843475 -0.005640257451872408 0.20994253911630317 0.03541540055828706 0.15137466590004356 0.3468287515443851 -0.060569267799125755 0.027626346333180403 -0.0038831389694120987 0.02380585231614197 -0.048117775235704735 0.07143716903482153 0.025985586679627495 0.005650151002841778 0.04663141412488577 -0.11928749469096553 0.23023848438895178 -0.11036115967120562 -0.20891820306687914 0.10607865022329803 0.1899303306511637 0.17480068721160752 -0.032326055769268995 0.25574341286950447 -0.18507872763605834 -0.12178721304015734 0.0823911953739654 -0.06561763830459151 -0.04732864799377856 -0.02729528945859985 -0.0029312276785752817 0.07598407740305513 0.13038730401966045 0.011949984738084075 0.20170568451072374 0.13989489038120875 0.037336189418470875 0.0762134123876895 0.027051693122360693 0.10402009006377073 -0.24622019710275025 -0.020389639433176097 -0.012629363035252646 0.049659051933177455 0.12071256521007659 0.27138216394678377 0.12929911529554 0.09785479115949898 -0.05910923750593508 -0.009373774199319123 0.07476399919138672 0.301213591383941 -0.04363053744379156 0.02557030714072063 -0.19605240016991649 -0.13482359194567597 -0.02159731900719043 -0.07125105424057256 0.08329761151004947 0.002761751978252393 0.025505745272574265 0.11220732980830801 -0.11627297060063156 -0.2156018077466867 -0.09720376812944964 -0.023223384262905815 -0.08829261768575518 -0.13334736157890353 -0.008442130232970056 -0.013238763140881172 0.07765340509196106 0.03433812947688863 0.22832196086763293 0.24321174837363221 0.09322076817699368 0.15504546522149631 0.15618723357336134 0.14121583294203277 0.229894458954958 -0.05739011949118239 -0.0350447262267718 -0.02173821274186738 0.14824362718162193 -0.0926191065413491 0.13981096979457017 0.09534090259288447 -0.16236677228639174 -0.05312181362677562 0.07620458913912491 0.14821229057506624 -0.048109257528472116 -0.007730611791901332 -0.05680324212953247 0.13985333916665743 0.03519058001531147 0.13228452829709758 0.028391562908622724 0.168280632268102 0.25334173442345465 0.05651453028911858 0.4116583104230129 -0.010034851559073325 0.13054957028915867 -0.020922251431092373 0.11762253016383951 0.09980804477223684 0.1671580197089949 -0.038753158366427606 0.032415037704355394 0.09797985583439367 -0.008064934924520185 -0.03778385967277565 0.04754369567401529 -0.06611454898215273 -0.04256235879781463 -0.08492941059205439 0.06560505040939418 -0.08178995658930989 0.053437707975733044 0.19200950685810583 -0.14649144569673422 0.14890703940924085 -0.008157678024282633 0.15473727019957972 0.0027144387424861446 -0.06718142553253112 -0.21867156602278118 0.056122545579292825 -0.06715542914267801 -0.16904906427058833 0.22670795692279233 -0.30348119761667547 -0.07209008752774264 0.15731049110099146 0.03542394691063882 -0.12115912432198973 0.23444784787430592 0.12063158438834275 0.20864243428156934 -0.00039189977674985 0.07079254505341108 0.060793320460908684 0.13512176909452667 -0.14014783967277988 -0.0717406572012991 0.01479594936024878 0.012555169669326398 0.0039051228219861927 -0.06729240864940164 0.07648604389935994 -0.028316336508152525 -0.13074422507794836 -0.2567745596523493 -0.00995089661127981 -0.14860852441356617 0.1898877977947895 0.043117325628288294 -0.25560650646467226 0.03274934534092932 -0.02443566852111675 -0.07836708956993638 0.24586823879496325 -0.00526836516296572 -0.0714527480538141 -0.16424152317437066 -0.051845870327071275 -0.10451059844128914 0.24309986327570313 0.11761570218035365 -0.06974484611330371 -0.08107953537939154 -0.05435103324185612 0.07381833368435364 -0.13264901929713546 -0.017744602509256625 -0.1476333666550584 -0.04039974771377331 -0.03631460352566082 -0.10346528966475589 -0.0017669965536484603 -0.06561423042639883 -0.08647336499086164 0.08690769042197465 -0.24732057020845355 0.0030067668791621707 -0.08414176548367669 0.12138538289336605 -0.06535856218825667 0.06482706700188949 0.20195596022120094 0.10092695826307785 -0.04326130363536488 0.13293624853239924 0.06342060901890512 0.0047409572200541195 -0.025810009485959583 0.16830261391072227 0.13966994109401018 -0.00026380491149098016 -0.06992513079651085 -0.20609399994311123 0.013464067039437482 0.10711988558594861 0.03732541524197331 0.04708284625601784 -0.1585001658081364 0.08479179533619309 0.1259461928526464 0.09308652222197006 0.06981601694560512 0.0227739657753524 -0.03851016213337294 -0.05585084479151794 -0.09870215854093015 -0.06082269441293651 0.011077533865673693 0.0658375816737834 -0.11217185377782776 0.11203619831155551 -0.044355144240253476 0.027665802207652256 0.022333128484106943 -0.0788652320147252 0.005271164226708703 0.16565904933717535 0.17617099539481557 0.1373195996479377 0.09794004404432956 0.08814003900954452 
0.02449026227526022 -0.3326691817348605 -0.08695628438284655 0.06809190676565907 0.11164028202074265 -0.18935401335631621 0.1287971285027912 0.053641389747200084 0.036930296310874654 -0.02580365221293607 0.03866298157598903 -0.0907218641250669 0.07962965222891842 -0.1684760783776205 -0.02077901064293676 -0.2006177906554763 0.08854398304745141 -0.011147873261850998 0.03916207812060542 0.03070397415194652 0.15217878802735837 0.07398188592687695 0.22269426459452088 -0.09827034288687844 -0.07533835760598699 -0.04910622568653373 0.017321511986066872 0.03631398121561509 0.07185195564423302 0.20783539964323447 -0.04531121965891781 0.09499122055947637 0.15075100484184614 -0.021969663985437173 -0.16920256509558018 0.11012425218992929 -0.051985699112095524 -0.17232030323614478 -0.024890963339122947 0.08886463364788162 -0.14510404229033635 0.1721114102282774 0.08782850094608372 -0.1377229205060631 0.09181355830967046 0.02377872294585056 0.11403682268350453 0.04572665503470099 0.04005323569487365 0.06188710080313456 -0.17796318293399865 -0.09349508930956507 -0.25481172034200616 -0.03690546164382329 -0.04407763174681321 0.1826148800195751 0.01211603174725438 -0.09197720675247933 0.15729882844705514 0.1491040182370422 -0.1275537494782334 0.08680636193537508 0.049651914142425875 -0.061032673995870555 -0.07359197957872543 -0.04758421354678131 0.2052634724269252 -0.06480924948322721 -0.06587618849566249 -0.033627801122475987 -0.039905544025616684 0.04311989165929918 0.06586528535782353 -0.0408392140723824 0.20834781272255662 0.019419131301585915 0.05540970549353224 -0.009322452665114972 -0.013119268720449743 -0.08539761980392023 0.14705391634345671 0.10273678249829482 0.06872324988789001 0.09066444848870804 0.17632862650637493 -0.05348067178439632 -0.0637160116794758 0.09759351543733889 0.030792685535251434 -0.2920646059189257 0.14264935337463694 -0.002220156574379544 0.02854059089660631 0.07362842462923114 -0.03237269920343469 0.05519276247237618 0.06994488472431185 0.05737166601589724 0.14421292805025843 0.11233754097407764 0.07347174068843829 -0.03655790314371513 0.006769074793707885 -0.06925813937500958 0.3691931220071827 0.07156319178796372 0.03494481511246142 0.11460540135814519 -0.0319321466141898 0.028864191789293482 0.050078587637809174 0.1936742356071302 0.06611336312339379 -0.06895509602314197 -0.21300702782336317 0.07162874641766935 -0.05357618745157354 -0.060171060905618155 0.0016436733737058714 -0.13032073457435314 0.004333673669326253 0.25705413456676485 0.15235772585674554 0.0175156580351699 0.4000482999702288 -0.10977172225770127 0.04628162425342961 0.06486202603706882 -0.07695572738066507 -0.11476857654911664 -0.10824015611486015 -0.05338439485839566 -0.13033829453990514 -0.21495182080167255 -0.19274259599517451 0.03136676121456659 -0.18116921393944108 -0.04405855869304266 -0.11021579180425646 -0.01515921304525502 0.1445641236488865 -0.09573898245362479 -0.13907189780230889 0.11259488784001866 0.12774852023377703 0.12543783015923674 0.25956237551514016 0.050289005946681765 -0.14519739525490458 -0.02839511205474655 0.07470249230528751 -0.06853764139476742 -0.21135966791876912 -0.058133931465517284 0.03129268429745188 0.1933741955523047 0.01496785838010022 0.008027394416861332 0.1569989499296234 0.028337109927572775 0.04128559304987693 0.004074603841418973 -0.09694929714918248 0.06536052208247704 0.09935125415937171 -0.00021006943952426034 -0.15550433790124304 0.11178003736803149 0.09962835856810277 0.025754772315464535 -0.0010906987880984237 0.12307693264448265 0.06160481839256097 -0.12697811597475323 -0.04278166242124376 0.010976780253281573 0.07986306893894256 -0.05757212887017227 0.02855440452197969 0.07558750702561447 0.024218263583633878 0.02397375760386852 0.07784799893908596 0.18989986212541854 -0.020888919369742378 0.2078534946317291 -0.04098057996007894 0.16903086405379122 -0.18220218813209457 0.13162403478688892 0.15133026628618715 0.34280647285688953 0.05077948836173678 0.11576170467505732 0.08921302574595319 0.19040453880266722 0.09825752331690413 0.289396629390024 0.06699351100437231 0.05318993601679485 -0.2403994376671943 -0.0020165334286462275 0.03170005501373529 0.1496032862310222 -0.16712363842548503 -0.05738453378195882 0.06636628479118768 -0.3168954567824833 0.05411121450676623 0.1519846890935497 -0.007066732840170065 0.07857458011705856 -0.21011980583109338 0.06689804069481335 0.027687303937755776 -0.00984729420794218 -0.017529306808843757 0.20383113859637944 0.12582795394372284 0.12397156352377524 0.05031775857471805 0.16074150363384015 -0.05702697303606867 -0.09563794484587507 0.17674389207006871 0.061557640177702405 -0.07282036941574144 0.14912198547680638 0.010688352723115352 -0.21145656815407088 -0.07797356108847164 0.07765768850799687 -0.1754573738334826 -0.13537730210237733 0.026112674817716657 -0.0873788769585945 -0.1017995347396664 -0.07220369008336865 0.025568011223753597 0.08327503942038601 -0.21080727799259585 0.14592208973471057 0.003397474485496394 0.1150794255917098 0.1811197893046727 0.1836227059697234 0.18514293695178313 0.09176875216127504 0.1989258264129499 0.11136589185756013 -0.08402439964602997 0.04801643321144376 -0.10650861652560163 0.05133365404725052 -0.37503135749927996 0.12179107125040896 0.09577714757444969 -0.04262387002613349 0.09477067682375781 -0.1326434137789455 -0.03969783988830251 0.11227425985033979 0.12143713720906876 0.08849782733913114 -0.13297374638750395 0.12997805833489115 0.19137552421010431 0.0545157459606029 0.09118900058618902 -0.04298086440202775 0.112283536184536 -0.121185119410201 0.1526765243544313 -0.027715160891272444 -0.04605283312111014 0.05647529419350187 0.013112780550680771 0.15783678160864112 0.06096021715862701 -0.08793384220601426 -0.18166745904244477 -0.13867343431453213 -0.024923360726386047 0.21340772614509157 -0.04285230628393031 -0.02892249661417688 -0.3411706431368605 -0.08388275291128505 -0.21336920419562092 -0.0075384203625410645 -0.03305636363028406 -0.025652145874260183 0.11875812794948172 0.2802368044158044 0.1758064141776398 0.22178171223567306 -0.07556822529109607 -0.023982066408898987 0.12456458403668118 -0.08856956084600427 -0.10400976012402949 -0.01773601588601598 -0.07361210689742606 -0.03497959233487904 0.16574720450204758 0.01752238387303941 -0.1540715454590848 -0.08893518674014707 -0.1432003633880998 -0.19330320219041486 -0.20745649904030522 0.08161886655034858 -0.25547644918375884 -0.14964598608045915 -0.10297758054009246 0.011874103819471155 -0.16195108054536972 -0.260714733063222 -0.10230486489613753 -0.18127379133642454 -0.2486386278648631 0.5768237576882868 0.2520004659916888 -0.07878690850560162 -0.1796591801728345 -0.09893314300023666 -0.11394898990248548 -0.049360405012464484 0.09187626205657957 0.06535690688726171 -0.20329478113317584 -0.004304255128658373 0.06859478552455955 0.08162135632544176 -0.11621940943524779 -0.20421672122086512 0.11250128936580563 -0.05217691854824093 0.04060226844863592 -0.1326157118746957 0.24881471839781677 -0.02739277982274109 -0.19806266216707485 -0.0030563751372400974 0.07283590857124138 -0.10728967257872615 -0.08534846016841487 0.3958169815685062 0.22021632547384304 0.2981188186099927 0.0405600074423805 0.06985453081861909 0.5056976151929293 -0.06197337683289789 -0.15143510750253986 0.11349934601966713 -0.13342254811002455 -0.21642915280262065 -0.13844389922686057 -0.06433636215792968 -0.009163164445917207 -0.05863243308064741 0.06255255867236714 0.011021739191121586 -0.09379068991961434 0.16378356552933837 -0.10491177675804456 0.044360544991059035 -0.20400878870487396 -0.13283798645826955 0.2111045616011414 -0.19989728744311822 -0.021621351449299026 -0.3608370730536999 0.10144174847899626 0.02287452296560959 0.21764286630531074 0.36640582642577746 0.3373747938849547 0.29975358119369266 0.02849825106389163 -0.01131983593824187 -0.0011293020764473537 -0.13902311934133915 -0.14430667681105097 -0.34912363957583914 -0.3264795386380691 0.2422324477834424 0.22592159849325524 -0.26894135995017004 -0.3264326424641122 -0.15205662006840875 -0.060185884774607554 0.20703882228669487 0.11893123501508171 -0.05654080284348352 0.07453758573067464 -0.3081943148928557 0.043448288580348625 -0.1500976641781487 0.01158204422870111 0.06516667723797318 -0.12015838674941279 0.3914576625953629 0.3293638388371096 0.23722110640726932 0.4146576241630459 0.2735087064870543 0.06566006415378811 0.012010501781001045 -0.4206915385854461 -0.05197657637394 -0.10777524318822607 0.20595131984228138 -0.20278858861194224 0.3105792615979497 0.032749663855348506 -0.32158868332199564 -0.23495747434862255 -0.0023764721218499057 -0.14110514981649647 -0.039110435762217934 -0.053804461631219394 -0.012268623163028753 -0.30771745852045584 -0.25567936327924395 0.10896067533907938 -0.11540471059669 -0.11772895639547579 0.0737403803352007 0.24091229105081047 0.2520350472232778 0.35143684453711915 0.18142231043109996 -0.12849473865383604 -0.1113479730061988 -0.026857431754605192 0.24118685483577296 0.02413880806777746 -0.035810863218808685 -0.009548996002113638 0.07193556955944724 0.09343148901273686 0.06822792724638939 0.028214210533260585 -0.2662901832218709 -0.13489368214216504 -0.12640543771784632 -0.07563318908346947 -0.06775684681817981 0.15138046269398098 0.025035432087546532 0.08992034970542596 -0.09637763409480547 0.07749783745061528 -0.03654238192267085 0.13739616649738698 0.2796244836562585 0.04411239413919452 0.19480762774084642 -0.38538409467412427 -0.1138805043522117 -0.18093690275256474 -0.2854804402284102 0.024362237050213037 -0.11970271056525057 -0.2631208864609777 -0.148018251931748 -0.014889591956708621 -0.05085060026289353 0.17313538804904383 0.21221303013813764 0.4884201347010641 0.07924855795223708 -0.06317093802335215 -0.07621654434832228 0.23317748826666806 0.02933873619679563 0.08068562618294159 -0.11036041812239646 0.10131923499123478 -0.22571661396006193 -0.09094317965661805 -0.014225632548633647 -0.1086052173094685 -0.048772252022533054 -0.07189921278888257 -0.25407519519942706 -0.1937655100774891 -0.23877362648399045 -0.11497715492566843 -0.1013945684880893 -0.155776799860795 -0.13637957583330432 -0.25945772343275203 -0.04492259163234792 -0.05244542977068444 0.09654951126634394 -0.007662278340044538 0.17902769955518613 0.21647437784518758 0.06234645022157954 -0.10651479189088935 -0.19920882885182203 -0.012725836683376552 -0.004786132509262934 -0.10327337288670523 0.05826300268034687 -0.029295065190707157 -0.17378055222881905 0.21000598159122413 0.0740834745483517 0.10572937750346063 -0.08835393056092863 -0.12833969685058078 0.027820237586048086 0.11558670618713868 -0.1690629619936812 -0.2463589172189316 -0.20783666818104352 -0.2626886738621025 0.09017561645484143 -0.23366370129805009 0.20547407785670155 -0.11307013166255439 0.12484932142009776 0.09053062094718002 0.12605384703415545 -0.04404781666518065 0.17372039004970505 -0.027882157081329927 -0.265268597714694 0.0927438666839323 -0.04048022899015971 0.17894927620652806 -0.40650917901260214 -0.1548553051073583 -0.12238498158259614 0.05247206577446776 0.3925613097066051 -0.0069803418228985 0.0918413473850343 0.15387038512440207 -0.03730565350540416 0.11296082976283572 0.06494649613181917 -0.04958073489394635 0.07393256698801406 0.014933138924469213 0.023620707392417246 -0.1250520814386234 0.03824674343440597 0.18642616143987575 0.3489290178186592 0.1001389206963564 0.13795908712517702 -0.06338947113098577 0.0823200692528 -0.057439563715226884 -0.14146445361530302 0.017902183263988573 -0.06973536465939262 0.08251921355937138 -0.07384541342070879 0.0026620251074788966 -0.04107796874211955 0.28685734251844774 0.1532988852698022 0.23235790158348868 -0.0909675947539288 -0.21773265242061163 -0.1966385782333832 -0.020819021483423746 0.07989298901503755 0.1462244668236829 0.2470958079290644 0.11585850087553855 0.042954514538616095 -0.05268643632829958 0.1593827886904374 0.4372024880060246 0.17013176714830142 -0.016983177102393117 -0.1558419888643125 0.2115263584367275 0.1911059905151188 -0.07596674696348747 0.09845192505835156 -0.001950699258777996 -0.16194612147381024 -0.09326395119601284 -0.16662527872456967 0.001417763533932045 -0.024749491676882812 0.16144416098532724 0.3687322467788239 0.1514108343592266 0.046805237849997454 -0.13564700213468514 0.04574705964347437 -0.11558363561694493 0.30505630544259615 0.3278549785215113 0.10525795253552075 -0.13429389385973714 0.12162119245412237 0.08844830656996923 0.15494411295798644 0.22576428950647562 -0.05036840750327975 -0.012007641300631372 0.09304194274413764 -0.10890912063524814 -0.015169401424067029 -0.028897218957358802 0.15367072792225656 -0.025742752667126376 -0.06478227269619603 0.052062443248710344 0.013470745772267135 0.023090574633210913 0.12083737021344329 0.0755549233954436 0.20876152899235303 0.07224831111385478 0.07906243984949561 0.33804874696369547 -0.20361727918508524 -0.1526462855707994 -0.2661855882003101 0.05012762138060264 -0.05883798331924339 0.03562479148902837 -0.06639580007919389 0.31898447517557044 -0.12262199485219377 -0.08298437495658353 -0.1840325062567743 -0.1360915776005472 -0.04540960110567416 0.11240925139361278 -0.18458613978353125 0.1778885485361943 -0.1032096366147979 -0.02968593615602356 0.2101229239994629 -0.05718669433168933 0.025007908754652038 0.14717265689656003 -0.020737781679696317 0.12452722626787112 0.03363454786347155 0.10772339450382967 -0.09457944367547086 0.06782471916858152 0.12263165906439674 -0.1244587477858698 -0.016255686645240186 -0.06661320016692497 0.24463676032673726 0.1173916346394448 0.13482957159446446 -0.12142728599725819 -0.07070990853301241 -0.09486083353757184 -0.1918332539341497 -0.029775540352158555 -0.01911332945817611 0.09746288107933965 -0.06525542536501432 -0.08087507506955986 -0.13992134231963016 0.15524025584392145 0.07318373625570589 -0.03963202928993338 0.09461561721786664 0.04822885318229273 -0.023308454537318904 0.15269872148125282 0.0060834917792338674 -0.0895385266674103 0.06319059523813994 0.1498855079123138 0.2057699647996982 0.02093052643336088 0.1450342864855781 0.029417529730523317 0.10888872326237449 0.01357801628402437 -0.0868104609585252 -0.15343098073132627 0.04997018504663291 -0.4103168512498468 -0.1044073770119575 0.039869922870418115 0.052450456301779316 0.021391114384588898 0.014954749557539768 0.2786344017226063 -0.07287043140863222 -0.008386356337134965 -0.019680630501650042 -0.0049357290097310465 0.04566813578898406 -0.07086341048544678 0.000874220468357433 0.0159062064214204 0.044077182533727215 0.17201070101254526 0.04545148524059363 -0.07276930617606474 0.24692649215278437 0.17511870816878772 -0.25980854651201774 -0.1688770648745831 -0.13004637870182387 0.007671755854050525 -0.07080145495777396 0.014929631838451342 -0.011707251276457945 -0.1864353939844274 0.011513125478489218 -0.08503430849769801 0.07671695147024428 0.23588737531626933 -0.05720287776691874 0.06928044390916425 -0.07713159478993034 0.13749401687175347 0.06180098650370569 -0.05877583411655522 -0.04757192002066494 -0.03574305875701397 0.07433776307631858 -0.07468510189628509 0.18397793839307267 -0.03351313359791737 0.03706278697036932 -0.1137038995081736 0.10018688852788132 -0.11546437125916219 0.2388287878105052 -0.07452920657663273 -0.03918697307242576 -0.04503559564174284 -0.06788228246472781 -0.20076319086759215 0.12638424313389487 -0.18354866208601908 -0.229877288430055 0.2653836563549322 0.2734803013716242 -0.023932775742562307 0.13428500999776552 0.20855494205278793 -0.013502342750663882 -0.007101120914034363 -0.11822345851293384 -0.08348440535080538 -0.08843925764163736 -0.01217417137781385 -0.09758644374658941 -0.04761221918896126 0.021550375931029785 0.09623465041646222 -0.07100124613493072 -0.09424251364432121 -0.06212547961370697 0.09677813046091154 -0.031096779671264552 0.018061424775823925 -0.14373731223096367 -0.09935920983434943 -0.18254335100743746 -0.13561522442938018 0.024508651345324338 0.01820300895974847 -0.17523630056329084 -0.027458986950078992 -0.02797168500669446 -0.010558028743657149 -0.08375764486488502 0.11695695998203942 -0.02270870149695179 0.26522351869270355 
